tree
version=v3
num_class=1
num_tree_per_iteration=1
label_index=0
max_feature_idx=10
objective=regression
feature_names=IAAB_E IAAA_E AAAX AAAA CKAB AAAZ AAAY AAAU_01 CKAF_24 CKAF_21 CKAF_22
feature_infos=-1:40:39:30:23:24:28:26:0:2:32:3:1:25:12:34:7:8:29:27:37:4:15:10:5:11:20:33:6:36:9:35:18:14:19:22:31:13:16:21:38 -1:38:30:28:23:24:26:32:25:29:27:34:37:19:11:10:20:22:18:14:33:7:8:21:36:16:13:15:35:31:6:3:9:4:17:1:2:5:12 -1:15:3:4:2:6:5:1:9:8:7:0:10:11:14:12 -1:0:1:2:11:3:10:13:6:9:4:14:7:12:5 -1:9:2:3:1:0:4:10:5:8:6:7 -1:0:1:11:2:3:4:6:5:7:8:10 -1:0:15:14:2:1:3:4:5:6:7:8:9:10:11:12 -1:30:29:0:16:23:17:27:24:1:9:28:8:26:10:18:25:13:22:20:6:2:19 [1:4] [1:4] [1:4]
tree_sizes=3485 3632 3706 3734 3719 3664 3646 3691 3648 3744 3701 3666 3676 3837 3750 3758 3677 3768 3682 3746 3766 3793 3684 3753 3789 3614 3590 3765 3660 3616 3672 3667 3701 3746 3824 3667 3799 3692 3784 3697 3689 3745 3688 3728 3817 3738 3782 3781 3837 3710 3754 3737 3715 3820 3721 3830

Tree=0
num_leaves=43
num_cat=27
split_feature=9 2 2 9 7 2 4 9 4 9 2 4 10 1 4 9 10 10 10 1 2 1 7 9 4 2 7 1 1 10 2 1 7 10 10 2 4 10 10 4 2 1
split_gain=2047.96 761.408 488.82 258.245 237.643 240.386 154.757 121.465 118.988 113.692 111.011 89.9643 68.3088 64.4628 60.112 54.2337 53.7067 52.0255 49.5902 46.7631 46.4394 46.0904 43.125 39.8309 28.9916 28.6586 28.3937 26.8198 26.1063 25.813 21.715 20.9158 23.8603 20.5623 20.2987 19.8413 25.2882 18.55 18.5473 17.8592 14.7382 14.1046
threshold=2.7500000000000004 0 1 3.5000000000000004 2 3 4 3.5000000000000004 5 1.5000000000000002 6 7 1.5000000000000002 8 9 1.5000000000000002 1.5000000000000002 3.5000000000000004 2.7500000000000004 10 11 12 13 1.5000000000000002 14 15 16 17 18 1.5000000000000002 19 20 21 2.7500000000000004 1.5000000000000002 22 23 2.7500000000000004 2.7500000000000004 24 25 26
decision_type=2 9 9 2 9 9 1 2 1 2 9 1 2 9 1 2 2 2 2 9 9 9 9 2 1 9 9 9 9 2 9 9 9 2 2 9 1 2 2 1 9 9
left_child=2 7 4 6 16 13 25 8 26 -4 21 20 -5 15 30 -6 -1 34 -12 -13 23 33 -11 -7 41 29 28 -15 -2 -3 -14 -23 -33 -8 -9 -34 -37 -21 -22 -29 -25 -24
right_child=1 3 9 12 5 11 10 17 -10 22 18 19 14 27 -16 -17 -18 -19 -20 37 38 31 24 40 -26 -27 -28 39 -30 -31 -32 32 35 -35 -36 36 -38 -39 -40 -41 -42 -43
leaf_value=7.2389515454736051 7.0288280288206515 7.181019711252989 7.2506302913567087 6.9669709813179939 7.2390589546419699 7.1669247753233591 7.0851530920679675 7.030428262019722 7.1034418385008093 7.2150261239576823 7.1865666506374764 7.1415340039083866 7.0626892404683597 7.0770773790184736 7.031546347241548 7.1557845711447934 7.1706969638134241 6.9195862571669116 7.1228996027668217 7.0879461725764239 7.0042658343980024 7.1426408699548212 7.1143182264536069 7.0979293531703131 7.1887825943656702 7.046342603673394 7.0667771212815298 7.1422024608380426 6.9583247509706965 7.0815053539946211 7.1197613202682888 7.1413214635363511 7.1241622162736427 7.0181147035075444 6.9728094733794679 7.0434644019922299 7.1122495906534091 6.9885708376389903 7.0981267714932947 7.1039150829081059 7.0460413994432596 7.1597994074591824
leaf_weight=189 218 28 364 105 87 45 144 83 166 422 338 265 109 102 441 730 303 190 192 181 196 221 101 118 487 325 103 391 226 252 150 128 123 67 321 114 104 20 24 173 145 278
leaf_count=189 218 28 364 105 87 45 144 83 166 422 338 265 109 102 441 730 303 190 192 181 196 221 101 118 487 325 103 391 226 252 150 128 123 67 321 114 104 20 24 173 145 278
internal_value=7.11289 7.06051 7.1573 7.08994 7.13275 7.11998 7.10883 6.99769 7.02488 7.20071 7.12679 7.08213 7.04195 7.14539 7.05341 7.16419 7.19547 6.96333 7.16264 7.11444 7.05417 7.10536 7.18718 7.08194 7.17163 7.06691 7.00328 7.12187 6.99004 7.09242 7.09466 7.11804 7.10603 7.0657 6.98439 7.0923 7.07466 7.0791 7.01864 7.13051 7.06606 7.14807
internal_weight=0 4148 4621 2841 2969 2477 2036 1307 713 1652 1431 994 805 1483 700 817 492 594 530 466 528 901 1288 308 866 605 547 666 444 280 259 690 469 211 404 341 218 201 220 564 263 379
internal_count=8769 4148 4621 2841 2969 2477 2036 1307 713 1652 1431 994 805 1483 700 817 492 594 530 466 528 901 1288 308 866 605 547 666 444 280 259 690 469 211 404 341 218 201 220 564 263 379
cat_boundaries=0 1 2 3 4 5 6 7 8 10 11 13 14 16 17 18 19 20 22 24 25 26 27 28 29 30 31 33
cat_threshold=16391 49215 134218243 32816 513 539 376 1539 1227130112 75 179 419430400 69 12 411041792 36 536936707 930 33552 1073741824 38281216 16 377503744 64 168 1128270848 545390594 272 28 1840 4 1115684864 5
is_linear=0
shrinkage=1


Tree=1
num_leaves=43
num_cat=34
split_feature=8 2 5 7 7 2 4 5 8 5 8 1 2 8 2 2 1 8 8 5 4 4 5 8 4 4 2 4 2 1 4 2 1 1 1 1 4 5 2 8 5 1
split_gain=1965.64 695.855 450.847 280.654 166.013 165.682 141.833 127.42 102.451 101.491 94.4019 80.3377 75.8644 69.7167 68.8615 60.7757 56.8344 55.9991 54.2017 45.3811 41.5579 40.5117 39.7877 32.5372 32.5258 26.3542 27.4904 22.4571 22.237 22.0947 19.5811 18.6544 17.2817 17.169 16.597 14.743 13.9151 13.8102 13.3338 12.3967 12.1877 9.61665
threshold=2.7500000000000004 0 1 2 3 4 5 6 1.5000000000000002 7 3.5000000000000004 8 9 1.5000000000000002 10 11 12 1.5000000000000002 1.5000000000000002 13 14 15 16 3.5000000000000004 17 18 19 20 21 22 23 24 25 26 27 28 29 30 31 3.5000000000000004 32 33
decision_type=2 9 9 9 9 9 1 9 2 9 2 9 9 2 9 9 9 2 2 9 1 1 9 2 1 1 9 1 9 9 1 9 9 9 9 9 1 9 9 2 9 9
left_child=1 4 10 8 7 9 12 16 -3 20 15 13 -4 36 -8 -2 24 -7 -18 37 -5 32 33 -14 28 -15 30 -17 -1 -19 -27 -24 -13 -16 -23 -22 -11 -10 39 -35 -20 -28
right_child=2 3 6 5 -6 17 14 -9 19 11 -12 21 23 25 22 27 18 29 40 -21 35 34 31 -25 -26 26 41 -29 -30 -31 -32 -33 -34 38 -36 -37 -38 -39 -40 -41 -42 -43
leaf_value=-0.022697078254872143 -0.15241728701780002 0.13866203891075277 -0.025611642253794677 0.017967693150885405 0.042529730321055108 0.11690625909456634 0.041845941645719947 0.027844586644914307 0.062487299276489917 0.048232906138903048 -0.19280600034319317 -0.01001009976837532 -0.083721984305693622 0.066295360273229964 -0.014448258085878391 -0.10276688952932289 -0.17055662042958397 0.019887151584603316 -0.098201548154473184 0.10078713799557111 -0.067459358979411965 -0.054350150980887017 -0.029937047510535299 -0.14164831339820796 -0.0052112786469164386 0.033265313028242156 0.022150810167199608 -0.041005978166555712 -0.091811044862364993 0.065953695170071228 -0.017676219948423642 0.019590806716376107 0.038317689719056157 -0.078786618604192504 -0.0065287476317785476 -0.021618890194771086 0.11712016685931166 0.023844459482939652 -0.033168597491195786 -0.15779660006460841 -0.04714799657447874 0.044269167905230583
leaf_weight=105 296 307 243 219 202 197 161 154 318 111 215 107 387 205 123 227 83 166 218 328 106 121 117 134 169 106 428 146 134 559 201 176 225 118 186 275 122 193 131 25 157 568
leaf_count=105 296 307 243 219 202 197 161 154 318 111 215 107 387 205 123 227 83 166 218 328 106 121 117 134 169 106 428 146 134 559 201 176 225 118 186 275 122 193 131 25 157 568
internal_value=0 0.0286038 -0.0762611 0.0449461 -0.0389339 0.0319569 -0.0438271 -0.0553516 0.0884408 0.0203153 -0.133383 0.029575 -0.0750107 0.0407049 -0.015225 -0.115986 -0.0703117 0.0688931 -0.0954422 0.0709565 -0.0162845 -0.000926804 -0.0289941 -0.0970341 -0.0403176 0.0330248 0.0270224 -0.0804794 -0.0638063 0.0566352 0.000460724 -0.000558038 0.0229225 -0.0493938 -0.026618 -0.0359239 0.0917534 0.048711 -0.0639057 -0.0876384 -0.0808958 0.035114
internal_weight=0 6270 2499 5048 1222 3902 1615 1020 1146 2980 884 2380 764 1741 851 669 866 922 458 839 600 639 690 521 408 1508 1303 373 239 725 307 293 332 397 307 381 233 511 274 143 375 996
internal_count=8769 6270 2499 5048 1222 3902 1615 1020 1146 2980 884 2380 764 1741 851 669 866 922 458 839 600 639 690 521 408 1508 1303 373 239 725 307 293 332 397 307 381 233 511 274 143 375 996
cat_boundaries=0 1 2 3 4 5 6 7 8 10 11 12 13 15 16 17 18 19 20 21 22 23 24 25 26 27 29 31 32 34 35 36 37 38 40
cat_threshold=16391 1 536872707 1619067136 33016 515 2055 1025 2101363776 71 4048 7200 16395 780140544 64 2131 409 1140 86 1554 386 40 556 16388 1220542464 37 33089 34635776 48 1157627904 1 8914944 1409286144 1 77 82 465 1 1157644288 5
is_linear=0
shrinkage=0.1


Tree=2
num_leaves=43
num_cat=24
split_feature=8 5 9 5 5 0 0 4 8 9 9 0 0 6 4 4 9 4 9 5 0 6 6 0 8 4 8 9 0 9 5 9 4 0 4 9 0 9 9 9 8 9
split_gain=1600.02 368.228 365.554 236.785 176.996 136.357 128.402 114.953 112.615 83.1122 76.4821 73.999 71.8512 66.491 55.125 53.7735 49.9623 58.6211 49.8587 42.3749 41.3285 36.2501 34.6983 33.3558 33.1523 30.4776 29.4176 28.5818 27.7467 26.2779 24.6246 22.3158 21.3914 20.9798 38.6977 20.6461 23.5197 20.277 19.2349 18.7635 17.076 16.9292
threshold=2.7500000000000004 0 2.7500000000000004 1 2 3 4 5 1.5000000000000002 3.5000000000000004 1.5000000000000002 6 7 8 9 10 3.5000000000000004 11 3.5000000000000004 12 13 14 15 16 1.5000000000000002 17 3.5000000000000004 2.7500000000000004 18 2.7500000000000004 19 1.5000000000000002 20 21 22 3.5000000000000004 23 1.5000000000000002 3.5000000000000004 1.5000000000000002 3.5000000000000004 1.5000000000000002
decision_type=2 9 2 9 9 9 9 1 2 2 2 9 9 9 1 1 2 1 2 9 9 9 9 9 2 1 2 2 9 2 9 2 1 9 1 2 9 2 2 2 2 2
left_child=2 9 3 6 11 10 8 26 31 14 -5 -4 38 -8 -2 30 17 22 25 35 29 -19 24 -18 -14 -13 -3 -28 37 -21 -10 -1 39 -15 -35 36 -9 -17 -6 -7 -37 -32
right_child=1 7 4 5 12 32 13 19 15 -11 -12 18 16 33 -16 28 23 21 -20 20 -22 -23 -24 -25 -26 -27 27 -29 -30 -31 41 -33 -34 34 -36 40 -38 -39 -40 -41 -42 -43
leaf_value=0.10550774106813382 -0.12450697117582923 -0.057284375145752714 0.022764095783877954 0.15432700539832458 -0.040811013244762911 0.10160142031303221 -0.050560316040707869 0.01470730549495303 -0.030814521455626961 -0.15799650651282049 0.084232439823121175 -0.0032656158850816242 0.14968198577629219 -0.024474629565044311 -0.049842897332901009 0.15274525567559516 0.022814132670683229 0.018464768343812388 -0.12246741032904783 0.049698540018450595 0.031610276097839098 0.071372241655937238 -0.028040797662203121 -0.044691905316139043 0.015737869746766591 -0.068916465694752391 0.073153711166794727 -0.11218168634758524 0.027158321481792355 -0.059231046519744514 0.097390445315921323 0.056929747181260974 0.011534619968456897 0.070500963778073605 0.00084769268686170612 -0.039892414937499177 -0.040919888891979173 0.057665194493317889 -0.13287048080961653 0.040154066685682631 -0.11491938764405976 0.0081363123300995099
leaf_weight=234 288 582 104 200 100 64 259 115 192 371 734 109 19 114 225 24 113 255 136 27 272 319 214 177 232 257 7.9999999999999991 174 899 106 23 167 262 108 253 82 200 267 29 225 49 181
leaf_count=234 288 582 104 200 100 64 259 115 192 371 734 109 19 114 225 24 113 255 136 27 272 319 214 177 232 257 8 174 899 106 23 167 262 108 253 82 200 267 29 225 49 181
internal_value=0 -0.0688146 0.025796 0.0427071 -0.00866966 0.0747304 0.0248408 -0.0395048 0.0380186 -0.120437 0.0983572 -0.0535429 0.0103045 -0.0108676 -0.0953308 0.0262031 0.0173623 0.0277307 -0.0695022 -0.0137541 0.00961791 0.0486657 0.000772868 -0.0191528 0.0254865 -0.0514005 -0.0675789 -0.103637 0.0366455 -0.0343276 -0.00596418 0.0854921 0.0335273 0.0114369 0.02317 -0.0346952 -0.0214606 0.0638762 -0.0580143 0.0522991 -0.0686927 0.0178083
internal_weight=0 2499 6270 4206 2064 1485 2721 1615 1987 884 934 606 1458 734 513 1586 1329 1039 502 851 405 574 465 290 251 366 764 182 1190 133 396 401 551 475 361 446 315 291 129 289 131 204
internal_count=8769 2499 6270 4206 2064 1485 2721 1615 1987 884 934 606 1458 734 513 1586 1329 1039 502 851 405 574 465 290 251 366 764 182 1190 133 396 401 551 475 361 446 315 291 129 289 131 204
cat_boundaries=0 1 2 3 5 7 8 9 11 12 13 14 15 16 18 19 20 22 23 25 26 27 29 30 32
cat_threshold=1 2051 1 285230347 384 2097471753 426 515 1342181380 33554474 4 46 515 514 531 278 335544324 256 238 33285 25165825 128 261 150994952 130 1 300 3600 20 316 1090519040 257
is_linear=0
shrinkage=0.1


Tree=3
num_leaves=43
num_cat=28
split_feature=8 2 2 6 0 8 0 4 2 8 2 2 2 4 8 0 4 4 6 8 2 10 10 6 6 10 4 8 4 0 0 4 10 8 10 0 4 10 2 10 2 4
split_gain=1299.24 525.431 275.843 231.852 135.406 131.696 92.2744 78.2279 70.8455 69.0837 63.9174 59.0878 47.9165 47.9144 42.1683 41.5413 36.5483 33.8904 31.7254 47.5746 30.0138 27.3551 26.9717 28.6394 26.826 26.74 26.1595 26.141 25.8694 23.7578 19.9746 18.7237 19.4364 18.3893 22.3324 18.012 17.9826 18.6394 17.1325 17.0154 16.8389 16.1916
threshold=2.7500000000000004 0 1 2 3 1.5000000000000002 4 5 6 1.5000000000000002 7 8 9 10 3.5000000000000004 11 12 13 14 3.5000000000000004 15 2.7500000000000004 3.5000000000000004 16 17 1.5000000000000002 18 2.2500000000000004 19 20 21 22 1.5000000000000002 1.5000000000000002 1.5000000000000002 23 24 1.5000000000000002 25 1.5000000000000002 26 27
decision_type=2 9 9 9 9 2 9 1 9 2 9 9 9 1 2 9 1 1 9 2 9 2 2 9 9 2 1 2 1 9 9 1 2 2 2 9 1 2 9 2 9 1
left_child=1 6 7 4 11 -5 17 -2 -4 21 22 16 -7 24 -9 25 -3 40 28 29 -11 41 23 33 -10 -14 -27 31 -15 -20 -22 32 -25 34 -8 -13 37 -17 -28 -19 -1 -6
right_child=2 3 8 5 9 12 10 14 13 20 -12 35 15 18 -16 36 -18 39 19 -21 30 -23 -24 27 -26 26 38 -29 -30 -31 -32 -33 -34 -35 -36 -37 -38 -39 -40 -41 -42 -43
leaf_value=0.0091871979880950912 -0.042373755594041849 -0.0043372424514329473 0.033355277664187548 0.11494788348621671 0.030227703129937375 0.079629896678338016 -0.19888105415506505 -0.10009962142316164 -0.033999145834500102 0.0094416096900506626 -0.10671797267300226 0.028360740943512916 0.10137510114850264 -0.0079587014955674346 -0.1490263007994985 0.057747805131539813 -0.068221807193737147 0.098509863132039355 0.035070980064542762 -0.098591829330934508 0.076650480712992464 0.20202247845462412 -0.20101326911615122 0.0091871103506826965 -0.089642175518111364 0.00040718835703269394 0.016421726171030205 -0.22599996133096562 -0.072056273335570631 -0.013016397978675213 0.030759127428299657 0.008407263551946138 -0.0542631009190358 -0.059206671422607486 0.0052341073672759059 -0.0083119322628182595 0.035111528437232274 -0.018777255729043603 0.066817540601838296 0.020041911448718211 -0.038633318779984854 0.083964481834362781
leaf_weight=118 242 162 146 410 130 440 21.000000000000004 631 205 725 193 249 104 112 255 37 218 34 144 50 110 14.999999999999998 8.9999999999999982 67 238 113 112 4.9999999999999991 182 294 979 167 169 116 6.9999999999999991 271 188 192 375 134 182 218
leaf_count=118 242 162 146 410 130 440 21 631 205 725 193 249 104 112 255 37 218 34 144 50 110 15 9 67 238 113 112 5 182 294 979 167 169 116 7 271 188 192 375 134 182 218
internal_value=0 0.0232285 -0.0620271 0.0374325 0.0201094 0.0642117 -0.0354443 -0.0984702 -0.0310434 0.0335676 -0.0569848 -0.0124568 0.0512239 -0.0389497 -0.113077 0.0389492 -0.0418845 -0.00022294 -0.0232838 -0.00715544 0.0257225 0.0734935 -0.0381334 -0.0357652 -0.0653563 0.0538771 0.0463668 -0.0202596 -0.0488182 0.00334456 0.0361226 -0.0175887 -0.0348228 -0.0727899 -0.149615 0.00947477 0.0130023 -0.00593404 0.0558529 0.0344339 -0.0201679 0.0673227
internal_weight=0 6270 2499 5048 3077 1971 1222 1128 1371 2177 754 900 1561 1225 886 1121 380 468 782 488 1814 363 561 552 443 704 600 408 294 438 1089 403 236 144 28 520 417 229 487 168 300 348
internal_count=8769 6270 2499 5048 3077 1971 1222 1128 1371 2177 754 900 1561 1225 886 1121 380 468 782 488 1814 363 561 552 443 704 600 408 294 438 1089 403 236 144 28 520 417 229 487 168 300 348
cat_boundaries=0 1 2 3 5 7 8 9 10 11 12 13 15 16 17 18 19 20 21 22 23 25 26 27 29 30 31 32 33
cat_threshold=16391 16399 32958 181931126 93 1090519312 264 484 7168 6 1080 7680 513 150994949 384 436 1571 220 5176 2 49232 512 50 1090519048 256 20616 778 142606342 16 868 64 4 833
is_linear=0
shrinkage=0.1


Tree=4
num_leaves=43
num_cat=28
split_feature=8 2 2 5 9 0 8 2 5 9 8 9 5 1 0 0 1 5 2 0 8 2 9 0 0 9 5 8 1 1 0 5 0 8 9 5 1 9 0 2 2 9
split_gain=1145.59 417.424 267.999 192.762 187.978 118.902 101.295 88.4474 84.7573 81.6859 69.6798 54.9247 50.5798 47.7353 45.9526 45.6779 42.7216 42.7018 40.9433 37.8117 40.0868 36.4138 31.6162 30.6831 29.6253 29.4056 29.3639 33.2036 30.084 27.2156 25.3751 24.6465 42.0261 24.5836 40.1952 23.3322 36.5935 25.8804 22.1406 21.9478 19.7106 19.969
threshold=2.7500000000000004 0 1 2 2.2500000000000004 3 3.5000000000000004 4 5 3.5000000000000004 1.5000000000000002 2.7500000000000004 6 7 8 9 10 11 12 13 3.5000000000000004 14 3.5000000000000004 15 16 1.5000000000000002 17 3.5000000000000004 18 19 20 21 22 1.5000000000000002 2.7500000000000004 23 24 1.5000000000000002 25 26 27 3.5000000000000004
decision_type=2 9 9 9 2 9 2 9 9 2 2 2 9 9 9 9 9 9 9 9 2 9 2 9 9 2 9 2 9 9 9 9 9 2 2 9 9 2 9 9 9 2
left_child=1 9 11 6 5 8 40 14 23 13 30 -2 38 18 22 -9 -13 -16 -1 -5 29 24 -6 -3 -14 -10 27 -18 -28 -21 -7 32 -17 -20 -35 36 -15 -38 39 -12 -4 -42
right_child=2 4 3 19 7 10 -8 15 25 -11 12 16 21 35 17 31 26 -19 33 20 -22 -23 -24 -25 -26 -27 28 -29 -30 -31 -32 -33 -34 34 -36 -37 37 -39 -40 -41 41 -43
leaf_value=0.049821058634312271 0.034523933500098032 0.013717446663967554 -0.14551212600263391 0.0096572912472325523 -0.030686745165080166 0.036093163895077586 -0.17844102452742577 -0.010715693355849645 0.094725948300212179 -0.092909425652649286 0.032014579227998108 0.028394142469811864 0.074009749673527567 -0.018280591201962716 -0.02333706916672839 0.0088662571525403994 -0.042822540941592248 0.027004976859680004 -0.11425500733550689 -0.019447135296958181 -0.10269665485699067 0.088394160548121686 -0.1169453601021354 -0.053272186542609026 0.030516087344913609 0.028932077416534377 -0.044385780095907337 -0.12482402160787848 0.027203373731815111 -0.066023296680778734 0.10154343050161148 0.061695259772866995 0.05796262624488794 0.048692953813851414 -0.080503894576012369 0.0035120008582646377 0.0051049616452087101 -0.083643169838491321 0.042837678601224401 -0.027444952762467046 -0.069579177497307729 -0.11557769525749106
leaf_weight=146 185 107 109 105 163 113 217 246 87 183 101 112 280 340 341 500 293 312 25 282 147 400 57 174 473 305 101 59 113 270 480 302 268 57 40 146 38 236 231 128 331 138
leaf_count=146 185 107 109 105 163 113 217 246 87 183 101 112 280 340 341 500 293 312 25 282 147 400 57 174 473 305 101 59 113 270 480 302 268 57 40 146 38 236 231 128 331 138
internal_value=0 0.0213085 -0.0591598 -0.0831861 0.0338767 0.0507325 -0.118579 0.0118479 0.0131008 -0.0312932 0.0618609 -0.0134742 0.0512992 -0.0205394 -0.0128092 0.0280857 -0.0268048 0.000765527 0.0156319 -0.0470494 -0.0555855 0.0624161 -0.0511996 -0.0282126 0.0475308 0.0426771 -0.0375997 -0.0553522 -0.00710758 -0.0438618 0.0914797 0.0370249 0.0265816 -0.0260271 -0.0048951 -0.0330697 -0.041676 -0.0688614 0.02153 -0.000952285 -0.09785 -0.081621
internal_weight=0 6279 2462 1599 5068 2879 795 2189 673 1211 2206 863 1613 1028 873 1316 678 653 268 804 699 1153 220 281 753 392 566 352 214 552 593 1070 768 122 97 760 614 274 460 229 578 469
internal_count=8741 6279 2462 1599 5068 2879 795 2189 673 1211 2206 863 1613 1028 873 1316 678 653 268 804 699 1153 220 281 753 392 566 352 214 552 593 1070 768 122 97 760 614 274 460 229 578 469
cat_boundaries=0 1 2 3 5 6 7 8 9 11 13 14 15 16 17 18 20 22 23 25 27 28 29 31 32 34 36 37 38
cat_threshold=16391 40896 2049 1612287732 31 120 3265 2049 1195376896 251658294 5 310378752 6 1208484864 13 16388 612368642 376 536903684 9 83886338 128 2435 276824064 64 1183842304 64 109051905 3121 1275070471 384 7 680525824 64 50336001 256 33600 16385
is_linear=0
shrinkage=0.1


Tree=5
num_leaves=43
num_cat=23
split_feature=8 2 2 5 9 5 8 9 2 9 9 4 4 10 5 4 4 9 5 9 5 8 2 2 4 9 8 9 5 4 2 8 2 2 9 2 8 4 8 8 10 4
split_gain=933.158 339.234 218.351 156.777 152.971 92.4083 81.5294 79.0656 72.0814 66.308 44.5375 40.5116 39.9903 53.469 40.5391 37.5639 35.7927 27.9231 27.7341 36.2925 26.8855 26.7843 26.1304 22.6248 25.5957 22.1267 23.6197 21.3818 20.4009 22.0195 24.7267 22.0897 20.188 19.6379 26.2103 18.022 17.7989 17.4051 26.1312 27.1124 15.8067 15.4802
threshold=2.7500000000000004 0 1 2 2.2500000000000004 3 3.5000000000000004 1.5000000000000002 4 3.5000000000000004 2.7500000000000004 5 6 1.5000000000000002 7 8 9 3.5000000000000004 10 3.5000000000000004 11 1.5000000000000002 12 13 14 2.2500000000000004 1.5000000000000002 3.5000000000000004 15 16 17 3.5000000000000004 18 19 2.7500000000000004 20 1.5000000000000002 21 1.5000000000000002 2.2500000000000004 2.7500000000000004 22
decision_type=2 9 9 9 2 9 2 2 9 2 2 1 1 2 9 1 1 2 9 2 9 2 9 9 1 2 2 2 9 1 9 2 9 9 2 9 2 1 2 2 2 1
left_child=1 9 10 6 5 11 33 -7 12 15 -2 32 13 17 21 22 35 -6 -18 -20 27 40 -1 24 -9 26 -17 37 -5 30 -30 -31 -3 -4 -35 -12 -13 38 -10 -40 -14 -23
right_child=2 4 3 28 8 7 -8 23 20 -11 16 36 14 -15 -16 25 18 -19 19 -21 -22 41 -24 -25 -26 -27 -28 -29 29 31 -32 -33 -34 34 -36 -37 -38 -39 39 -41 -42 -43
leaf_value=-0.073961610733365518 0.031092330575661926 -0.042061561754394156 -0.10706460012365354 -0.0035206821760032101 -0.091275741778783503 0.094079873230011171 -0.16068861195686013 -0.0059732207194710986 0.12165872734670297 -0.083675040549329824 -0.01705124946025869 0.064758862885717403 0.030024565284344207 -0.026359002150384642 0.042131466641651634 -0.03454460891056127 0.0061728730368360912 -0.28217340546192227 -0.028391629174366051 -0.093908132396035501 0.054741430651371673 0.0047820792958501133 -0.02188588442199078 0.054148079090995019 0.04519264895427811 -0.020678251252500581 0.048441142849715797 -0.034842995004073167 -0.056471693530374151 -0.052010991768160458 0.0046585936734854384 -0.10482833669912105 0.0087519377978841906 0.0037552350927919742 -0.076232680424656335 0.038444996376699361 0.02398498042911244 0.046595436758603746 -0.033853272704701717 0.019212214815974217 0.18474471715896956 -0.036547490311667978
leaf_weight=116 185 115 322 126 26 464 217 167 21 183 113 144 39 225 173 43 107 10.999999999999998 217 139 249 142 567 1139 230 146 156 70 115 312 143 108 201 51 205 102 419 216 112 648 6.9999999999999991 250
leaf_count=116 185 115 322 126 26 464 217 167 21 183 113 144 39 225 173 43 107 11 217 139 249 142 567 1139 230 146 156 70 115 312 143 108 201 51 205 102 419 216 112 648 7 250
internal_value=0 0.0192592 -0.053366 -0.0750528 0.0305892 0.0457947 -0.106972 0.0576138 0.0107172 -0.0281611 -0.0121296 0.0180044 -0.0115424 -0.0434092 0.00265397 -0.018472 -0.0241336 -0.154657 -0.0392772 -0.052711 0.0253759 -0.0135959 -0.0317736 0.0469122 0.0240932 0.00854984 0.0304165 0.018029 -0.0424621 -0.0495253 -0.023797 -0.0643084 -0.0105416 -0.0883803 -0.0580914 0.0098731 0.0339205 0.0219568 0.0143068 0.0113537 0.0574032 -0.0224131
internal_weight=0 6279 2462 1599 5068 2879 795 2000 2189 1211 863 879 873 262 611 1028 678 37 463 356 1316 438 683 1536 397 345 199 1067 804 678 258 420 316 578 256 215 563 997 781 760 46 392
internal_count=8741 6279 2462 1599 5068 2879 795 2000 2189 1211 863 879 873 262 611 1028 678 37 463 356 1316 438 683 1536 397 345 199 1067 804 678 258 420 316 578 256 215 563 997 781 760 46 392
cat_boundaries=0 1 2 3 4 5 6 7 8 9 10 11 12 13 14 15 16 17 18 19 20 21 22 23
cat_threshold=16391 40896 2049 3073 120 514 69 135 563 434 28 3155 1 40 580 136 60 41 168 16395 832 1569 274
is_linear=0
shrinkage=0.1


Tree=6
num_leaves=43
num_cat=35
split_feature=9 5 5 9 7 9 0 6 7 4 6 0 5 7 0 7 6 4 5 6 4 9 7 4 0 0 9 4 4 0 6 0 4 9 9 7 4 0 0 0 4 6
split_gain=723.534 301.47 169.874 119.574 113.482 95.4792 81.8886 61.6741 60.8986 59.397 60.2637 58.9856 50.4352 48.6704 44.5235 42.5139 40.9047 45.3655 39.7704 39.1454 38.9253 36.2178 36.2102 36.1065 30.558 28.0148 22.2392 21.9425 21.7735 21.5088 19.3303 18.8182 32.1361 18.3883 18.3838 18.049 17.4752 16.1779 15.0485 13.9188 15.453 13.622
threshold=2.7500000000000004 0 1 3.5000000000000004 2 3.5000000000000004 3 4 5 6 7 8 9 10 11 12 13 14 15 16 17 1.5000000000000002 18 19 20 21 1.5000000000000002 22 23 24 25 26 27 1.5000000000000002 1.5000000000000002 28 29 30 31 32 33 34
decision_type=2 9 9 2 9 2 9 9 9 1 9 9 9 9 9 9 9 1 9 9 1 2 9 1 9 9 2 1 1 9 9 9 1 2 2 9 1 9 9 9 1 9
left_child=2 3 9 8 12 16 22 23 11 10 21 28 27 18 -11 -12 17 37 31 -20 -9 -1 33 -7 -15 36 -24 -3 -2 -5 -26 -8 -33 -4 -21 -16 -18 -6 -13 -37 -41 -27
right_child=1 4 6 29 5 7 13 20 -10 14 15 38 -14 24 35 -17 25 -19 19 34 -22 -23 26 -25 30 41 -28 -29 -30 -31 -32 32 -34 -35 -36 39 -38 -39 -40 40 -42 -43
leaf_value=0.08542333364049598 -0.10711616235994546 -0.033582176975399225 0.080673277338886795 -0.051514419212121548 -0.040022367410049997 -0.047712609126371847 -0.037620978258608488 -0.038469734146633218 0.020698969695860062 -0.02474040422550863 -0.069394152901616699 0.0041217783563436399 0.053626059335602584 0.061545468359807502 -0.013653213939165959 0.00017414515984933901 -0.08034923388053461 0.036660751221906845 -0.012304234485927715 0.12178510291153118 -0.10556525835152622 -0.0019798023740916688 0.11614421474064154 0.021070008344532192 -0.015118594873695233 0.0031206073622655141 0.07132964534833712 0.022076870651002979 -0.044556773482127061 -0.1198442137399979 0.040033806579963749 -0.029113646583205012 0.025118236032110233 0.00307260201848456 0.050840707346165137 0.063176910421154156 -0.022920532756615528 0.0051282397555786185 -0.040739775326312545 0.0478924308623698 0.016652763158136116 -0.02656618289216622
leaf_weight=57 227 130 40 115 142 147 108 202 115 211 247 124 308 559 110 143 110 319 100 45 232 257 145 140 105 339 526 132 145 410 139 155 311 119 198 103 148 166 188 210 740 274
leaf_count=57 227 130 40 115 142 147 108 202 115 211 247 124 308 559 110 143 110 319 100 45 232 257 145 140 105 339 526 132 145 410 139 155 311 119 198 103 148 166 188 210 740 274
internal_value=0 -0.0316088 0.0260251 -0.0706853 -0.0127383 -0.0229596 0.0432412 -0.052933 -0.0467523 0.00465632 -0.018782 -0.0575699 0.0267306 0.0303208 0.0167198 -0.0445882 -0.00865743 0.0107856 0.0141644 0.0405879 -0.0760778 0.013699 0.069261 -0.0146257 0.0483254 -0.0225151 0.0800011 -0.0057831 -0.0847326 -0.108275 0.0166757 -0.00209652 0.00682159 0.0216695 0.0619401 0.024405 -0.0497141 -0.0163573 -0.023382 0.0284818 0.0240326 -0.0103858
internal_weight=0 4113 4628 1324 2789 2219 2550 721 799 2078 704 684 570 1720 1374 390 1498 627 917 343 434 314 830 287 803 871 671 262 372 525 244 574 466 159 243 1163 258 308 312 1053 950 613
internal_count=8741 4113 4628 1324 2789 2219 2550 721 799 2078 704 684 570 1720 1374 390 1498 627 917 343 434 314 830 287 803 871 671 262 372 525 244 574 466 159 243 1163 258 308 312 1053 950 613
cat_boundaries=0 1 2 3 5 6 7 8 9 11 12 13 15 16 17 18 19 20 21 22 23 25 27 28 29 30 31 33 34 35 36 38 39 41 42 43
cat_threshold=1 3073 939589890 54543746 128 32838 1753285120 515 32769 562036992 417 6 1417674752 100666752 20 1082130432 33665 673 38 17032 568 142802944 513 1149239301 289 922779812 5 532 586 1342181389 21 1082130432 33 22 545259522 13 268435456 384 335548421 12 33 12 86
is_linear=0
shrinkage=0.1


Tree=7
num_leaves=43
num_cat=32
split_feature=9 3 2 3 2 3 2 1 1 3 1 1 4 1 4 4 2 1 1 10 9 4 10 9 9 1 4 1 2 1 4 10 2 2 4 10 2 10 4 3 1 10
split_gain=590.263 358.943 198.138 148.126 141.052 117.805 88.6384 67.4521 52.7372 52.3961 51.4031 51.1476 57.7652 50.5602 43.8734 29.5174 29.4456 28.3891 28.2678 26.1671 25.5831 29.2112 25.5742 23.8728 23.4367 22.9223 40.8929 22.0851 21.9131 19.9402 24.4751 31.1253 24.4504 21.476 18.928 18.2338 18.0028 17.4409 17.0381 16.2741 15.4647 14.7326
threshold=2.7500000000000004 0 1 2 3 4 5 6 7 8 9 10 11 12 13 14 15 16 17 3.5000000000000004 3.5000000000000004 18 2.7500000000000004 3.5000000000000004 1.5000000000000002 19 20 21 22 23 24 3.5000000000000004 25 26 27 2.7500000000000004 28 2.7500000000000004 29 30 31 1.5000000000000002
decision_type=2 9 9 9 9 9 9 9 9 9 9 9 1 9 1 1 9 9 9 2 2 1 2 2 2 9 1 9 9 9 1 2 9 9 1 2 9 2 1 9 9 2
left_child=4 2 18 16 5 13 10 29 28 -10 19 -7 17 24 23 -12 35 -13 -2 -5 21 -9 -16 -4 -1 -15 -27 -23 -6 30 31 32 -8 -32 -30 -3 -14 -29 -37 -28 -18 -11
right_child=1 3 14 6 8 11 7 20 9 41 15 12 36 25 22 -17 40 -19 -20 -21 -22 27 -24 -25 -26 26 39 37 34 -31 33 -33 -34 -35 -36 38 -38 -39 -40 -41 -42 -43
leaf_value=0.061129237120381777 -0.05614472727629706 0.024579520449458582 -0.039836108993379367 -0.031673244289996648 0.033172297115034256 0.042688151976700846 -0.023605692094210581 0.0038017999630412533 0.08541310928905993 0.057555670097763037 -0.0047216732319459876 0.02384275806040809 -0.073180148628364125 0.061342771019334622 0.025252472378511366 0.053215914220765929 0.013331051133640233 -0.027733329090382314 -0.13600574458737888 -0.18881326098870976 -0.077781097601855448 -0.030342542078755322 -0.0393323952460371 -0.10571339123883142 -0.01546574133934296 0.060305933977885244 -0.0076055985780502672 -0.10671212790678863 0.024925364848748053 0.01699731189981836 -0.0047389475101531587 -0.073780196387571606 0.02717958746250785 -0.063656100504943414 -0.028042876206592127 -0.040163156231467018 -0.028445981710470299 -0.047760002578113039 0.015089164176802533 0.025298993933114383 0.063145430073195147 0.033757843831463706
leaf_weight=44 107 296 153 91 278 106 159 119 364 376 145 215 232 265 146 225 114 191 430 10.999999999999998 313 265 104 87 348 245 249 120 103 157 105 57 204 188 156 104 222 91 102 361 220 873
leaf_count=44 107 296 153 91 278 106 159 119 364 376 145 215 232 265 146 225 114 191 430 11 313 265 104 87 348 245 249 120 103 157 105 57 204 188 156 104 222 91 102 361 220 873
internal_value=0 -0.028608 -0.0794719 -0.0113639 0.023448 0.00704702 -0.0246975 -0.0349143 0.0421091 0.051261 0.0137065 -0.0200972 -0.0282821 0.0244093 -0.0316782 0.0310354 0.024375 -0.000513374 -0.121555 -0.0460245 -0.0540091 -0.0422872 -0.00160649 -0.0615446 -0.00655191 0.0352036 0.0264184 -0.0527651 0.0141369 -0.0145554 -0.0216575 -0.0056993 0.00502876 -0.0434878 -0.00681934 0.00854842 -0.0525089 -0.077997 -0.0140822 0.0119718 0.0471204 0.040642
internal_weight=0 4113 1027 3086 4628 2478 2250 1778 2150 1613 472 966 860 1512 490 370 836 406 537 102 908 595 250 240 392 1120 855 476 537 870 713 420 363 293 259 502 454 211 206 610 334 1249
internal_count=8741 4113 1027 3086 4628 2478 2250 1778 2150 1613 472 966 860 1512 490 370 836 406 537 102 908 595 250 240 392 1120 855 476 537 870 713 420 363 293 259 502 454 211 206 610 334 1249
cat_boundaries=0 1 2 3 4 5 6 8 10 11 12 14 15 17 18 19 20 22 24 25 27 28 30 31 33 34 35 36 37 38 39 40 41
cat_threshold=24712 49159 7216 49199 7764 24192 844504458 72 1618543184 25 30848 276826112 50332928 16 444 369885312 20 676 228 33235 1073741824 69 1090519040 4 304 152044800 3 123 1149763584 4 2496 806619146 64 899 297 274 292 11 529 516 360710144
is_linear=0
shrinkage=0.1


Tree=8
num_leaves=43
num_cat=36
split_feature=9 3 7 3 2 2 1 2 1 1 3 9 4 1 4 9 2 4 4 2 1 7 3 1 3 9 4 2 9 1 1 2 1 2 4 1 3 9 3 2 3 4
split_gain=517.192 254.249 185.167 129.03 123.015 116.665 101.482 87.6653 57.9397 49.9182 49.7079 48.8506 48.8148 40.8795 40.3904 38.6818 34.9595 34.685 34.3 34.257 28.3145 28.1511 24.9561 24.8516 40.9423 24.3697 23.9982 23.2521 21.9024 21.0832 20.1147 19.3593 18.0737 14.3243 13.9705 13.5253 13.6548 12.7872 12.7079 13.4297 12.0019 11.7147
threshold=2.7500000000000004 0 1 2 3 4 5 6 7 8 9 1.5000000000000002 10 11 12 3.5000000000000004 13 14 15 16 17 18 19 20 21 3.5000000000000004 22 23 3.5000000000000004 24 25 26 27 28 29 30 31 3.5000000000000004 32 33 34 35
decision_type=2 9 9 9 9 9 9 9 9 9 9 2 1 9 1 2 9 1 1 9 9 9 9 9 9 2 1 9 2 9 9 9 9 9 1 9 9 2 9 9 9 1
left_child=2 4 11 5 13 12 14 8 10 41 26 -1 -4 -2 33 22 -16 -6 -7 23 27 -10 -11 24 -8 -15 -3 28 -12 -19 38 -20 37 -5 -24 36 -34 -23 39 -21 -13 -9
right_child=1 7 3 6 17 18 19 9 21 15 20 40 -14 25 16 -17 -18 29 31 30 -22 32 34 -25 -26 -27 -28 -29 -30 -31 -32 -33 35 -35 -36 -37 -38 -39 -40 -41 -42 -43
leaf_value=0.095181716308172182 -0.072271776465199097 -0.0029506663027667754 -0.08892092159284698 0.041166043160967926 -0.051226000575626318 0.042733336220742726 0.070738449993543603 0.012646753670566672 0.01117362623046894 -0.030462022319539369 0.027022861225709672 0.027718310819217457 -0.007497077295779456 0.012232978741465759 -0.07354759382699852 -0.045549002359457989 -0.0064082835410003494 -0.059236137867984609 0.026827054781518114 -0.0052365255304946236 0.010948959293575436 -0.020106772517232772 -0.0054535803720546549 0.046322988471720138 0.0048972926007450068 -0.047823134089571888 0.043743974147279992 -0.058341365827839047 -0.062385054841046339 -0.13670376915680274 0.076463874741685089 -0.019922907037332738 -0.069050530361904949 0.0035061131663612563 0.035415589529144607 -0.090629199156752702 -0.021031411298973623 -0.05123213787996983 0.058662865178725682 0.041921400723373713 0.058612541389089071 0.05444718090504095
leaf_weight=313 128 217 235 131 169 192 101 120 109 106 81 281 121 216 112 162 232 106 112 111 155 400 124 402 634 97 218 233 40 286 303 311 123 375 258 125 166 198 182 125 421 259
leaf_count=313 128 217 235 131 169 192 101 120 109 106 81 281 121 216 112 162 232 106 112 111 155 400 124 402 634 97 218 233 40 286 303 311 123 375 258 125 166 198 182 125 421 259
internal_value=0 -0.0244997 0.02412 0.0135289 -0.0679811 -0.0176255 0.0247262 -0.0101462 -0.0219965 0.0136157 -0.00358083 0.0617114 -0.0623114 -0.0267427 -0.00395867 -0.00333305 -0.0298862 -0.0992486 0.00888872 0.0377944 -0.0245514 -0.0373168 0.0106854 0.0263279 0.0148643 -0.00628287 0.0209574 -0.0399553 -0.00262021 -0.117968 0.0552024 -0.00717453 -0.0426043 0.0139316 0.0223702 -0.059566 -0.04327 -0.0299885 0.0382081 0.0205037 0.0475378 0.04195
internal_weight=0 4096 4694 3679 1002 971 2708 3094 2065 1029 944 1015 356 441 850 650 344 561 615 1858 509 1121 488 1137 735 313 435 354 121 392 721 423 1012 506 382 414 289 598 418 236 702 379
internal_count=8790 4096 4694 3679 1002 971 2708 3094 2065 1029 944 1015 356 441 850 650 344 561 615 1858 509 1121 488 1137 735 313 435 354 121 392 721 423 1012 506 382 414 289 598 418 236 702 379
cat_boundaries=0 1 2 3 4 5 7 8 10 12 13 14 16 17 18 19 20 21 23 24 25 27 28 29 30 32 34 35 37 38 39 40 41 42 43 44 45
cat_threshold=24712 134350593 24714 1912 16399 3497795584 25 16511 577904008 77 1309166592 5 6212 519 1342177280 37 1436 33289 54 261 36923 33556480 65 805306624 84 578881664 100 6144 548 80 1098907648 32 150998464 64 2592 1351122944 34 2648 832 84165120 6 81 448 8206 394
is_linear=0
shrinkage=0.1


Tree=9
num_leaves=43
num_cat=32
split_feature=3 7 7 0 4 10 1 3 0 1 3 3 0 4 1 0 7 10 4 0 1 7 0 7 10 10 3 10 4 10 10 10 0 7 4 10 3 10 1 1 4 0
split_gain=369.848 171.91 147.806 122.744 114.318 65.4911 67.2714 65.9447 57.4159 53.4677 52.0186 48.5793 45.6578 43.6944 42.3112 40.3763 36.0099 29.962 26.4095 25.4991 22.4574 21.1593 21.1456 20.2201 19.0506 19.0127 18.6846 17.8479 17.4132 20.3676 17.3141 16.6279 23.1693 16.3882 15.2738 15.2479 14.0687 17.796 13.8031 12.392 12.1378 12.0217
threshold=0 1 2 3 4 2.7500000000000004 5 6 7 8 9 10 11 12 13 14 15 1.5000000000000002 16 17 18 19 20 21 3.5000000000000004 2.7500000000000004 22 1.5000000000000002 23 2.7500000000000004 2.2500000000000004 3.5000000000000004 24 25 26 3.5000000000000004 27 2.2500000000000004 28 29 30 31
decision_type=9 9 9 9 1 2 9 9 9 9 9 9 9 1 9 9 9 2 1 9 9 9 9 9 2 2 9 2 1 2 2 2 9 9 1 2 9 2 9 9 1 9
left_child=1 25 9 10 8 6 22 -7 -3 23 15 12 13 19 -6 24 18 -11 -12 27 -14 28 -5 -2 -4 33 -25 -8 -17 -30 41 32 -9 -1 -22 39 -21 -38 -15 -16 -41 -19
right_child=2 4 3 5 14 7 11 31 -10 17 16 -13 20 38 35 21 -18 30 -20 36 34 -23 -24 26 -26 -27 -28 -29 29 -31 -32 -33 -34 -35 -36 -37 37 -39 -40 40 -42 -43
leaf_value=0.071913036498572266 0.077133795740004937 -0.016002834913510625 0.051919012564450841 -0.0076836016447470318 -0.082666388078354747 0.017102224941595578 0.066591005437244541 -0.084424773161009783 -0.10102685749220304 0.052018182643426704 0.059737810076254762 0.028196460213877617 -0.068068070819254756 0.049540781543497392 0.014879069793696787 0.0063386773800128363 -0.015059212637145859 0.033208487889834805 0.026262811983638498 -0.019558887308679971 -0.04612905854535479 0.026799762992896395 0.041194594097832389 0.014305554542027544 0.20416107202654643 -0.032861750046782857 0.062950095862371727 -0.012035638657857882 -0.0043151713991510486 -0.04350442875604435 -0.016910151010205546 -0.096801750366416819 -0.026876908444531097 0.01349010539769541 0.0054877525287323056 -0.063292462616748396 -0.096799080451997227 -0.01917821000474746 0.0051040348204318643 -0.0004621065582395814 -0.032533486680787392 0.0041514742236015032
leaf_weight=109 347 114 108 120 113 145 37 123 515 246 385 215 246 107 120 667 143 303 769 158 109 244 344 187 7.9999999999999991 34 160 118 402 197 163 103 224 110 112 67 93 44 195 200 303 283
leaf_count=109 347 114 108 120 113 145 37 123 515 246 385 215 246 107 120 667 143 303 769 158 109 244 344 187 8 34 160 118 402 197 163 103 224 110 112 67 93 44 195 200 303 283
internal_value=0 -0.0406662 0.0112983 0.00321322 -0.0541138 -0.0130571 -0.00402557 -0.0420242 -0.0861628 0.0370335 0.0170869 -0.0147162 -0.0224713 -0.00691281 -0.0281754 0.0050726 0.0319776 0.0215998 0.0378944 -0.0264121 -0.0467813 0.000510741 0.0286697 0.0584716 0.0592158 0.0345223 0.0379936 0.00665063 -0.00474527 -0.0169781 0.0118344 -0.0601177 -0.0506791 0.0466661 -0.0209606 -0.0180819 -0.0433945 -0.0673514 0.0220485 -0.0134045 -0.0200673 0.0198469
internal_weight=0 1685 7105 5416 1432 2493 1898 595 629 1689 2923 1434 1219 752 803 1626 1297 995 1154 450 467 1510 464 694 116 253 347 155 1266 599 749 450 347 219 221 690 295 137 302 623 503 586
internal_count=8790 1685 7105 5416 1432 2493 1898 595 629 1689 2923 1434 1219 752 803 1626 1297 995 1154 450 467 1510 464 694 116 253 347 155 1266 599 749 450 347 219 221 690 295 137 302 623 503 586
cat_boundaries=0 1 2 3 5 6 7 8 9 11 12 13 14 15 17 19 20 21 22 24 25 26 27 28 29 30 31 32 33 34 35 36 38
cat_threshold=24712 151126787 671221505 3288431112 462 514 572960204 68 1426063360 1133530176 33 519 1095 427851795 1071 134217728 37 2147500544 130 1342242818 504 402685968 1477443584 17 1140916224 33587520 134218241 4115 1198 813695376 259 531 5 1149239296 58722304 456 201326598 256
is_linear=0
shrinkage=0.1


Tree=10
num_leaves=43
num_cat=31
split_feature=9 5 7 2 1 9 5 5 7 2 1 9 5 1 1 2 7 10 2 5 1 5 9 1 9 5 9 5 2 7 10 5 2 1 2 10 1 1 2 9 5 10
split_gain=382.761 198.079 123.836 101.399 92.2559 54.6881 50.1637 48.3787 42.696 38.4508 37.228 37.0471 37.1491 34.7473 38.6653 32.5084 30.5567 30.1378 28.6488 28.0649 21.1272 35.948 40.8715 20.8392 35.4893 25.4831 20.298 19.5094 27.1247 19.2516 18.288 17.9898 17.8969 16.8259 16.8255 16.0063 18.7058 15.3842 14.6682 13.6051 13.4764 13.262
threshold=2.7500000000000004 0 1 2 3 3.5000000000000004 4 5 6 7 8 1.5000000000000002 9 10 11 12 13 2.7500000000000004 14 15 16 17 1.5000000000000002 18 3.5000000000000004 19 3.5000000000000004 20 21 22 3.5000000000000004 23 24 25 26 2.7500000000000004 27 28 29 3.5000000000000004 30 1.5000000000000002
decision_type=2 9 9 9 9 2 9 9 9 9 9 2 9 9 9 9 9 2 9 9 9 9 2 9 2 9 2 9 9 9 2 9 9 9 9 2 9 9 9 2 9 2
left_child=2 5 11 6 15 8 20 10 -2 -10 29 -1 34 -7 17 16 30 -15 -6 26 21 22 -4 24 40 39 -18 28 -12 -5 -3 -20 -9 -11 -13 36 -29 41 -35 -25 -17 -30
right_child=1 4 3 7 18 13 -8 32 9 33 27 12 -14 14 -16 23 19 -19 31 -21 -22 -23 -24 25 -26 -27 -28 35 37 -31 -32 -33 -34 38 -36 -37 -38 -39 -40 -41 -42 -43
leaf_value=0.080531519704002602 0.017255117019116861 0.029430039661248283 0.083415327440176573 0.048654135276725095 -0.0044939115818481007 -0.11736563938225363 0.042019894622750173 0.015833606406556802 -0.081112186409558321 -0.058264913844778644 -0.045358394296248862 0.031188121567806565 0.054993537026048415 -0.044425715223142939 -0.025215626751911607 -0.0063596671583618578 -0.030093600669574883 -0.14485499776527211 -0.055473999326338543 -0.007039343410813895 -0.036264467538833299 0.034705564994446957 -0.055106488847211955 0.0052262440025311043 -0.028025312742062498 0.073456712255462381 -0.11674980414518464 0.046785656090914916 0.060910325166171703 0.0037397825961138589 0.18603805780727728 -0.01638902570922705 0.065206332315922585 0.0072700927476315007 -0.019770452892189719 -0.030217163739186516 0.011662999310058944 -0.010845516499529834 -0.034179011278169143 0.061434796813829844 0.030592818300119368 0.010521609613623105
leaf_weight=313 123 103 24 424 283 170 121 126 219 130 110 116 464 51 214 133 68 76 432 551 543 132 142 198 199 122 45 241 58 137 6.9999999999999991 202 317 155 122 56 442 350 177 54 384 456
leaf_count=313 123 103 24 424 283 170 121 126 219 130 110 116 464 51 214 133 68 76 432 551 543 132 142 198 199 122 45 241 58 137 7 202 317 155 122 56 442 350 177 54 384 456
internal_value=0 -0.021159 0.0206675 0.0119991 -0.00590032 -0.0529488 -0.015792 0.0218633 -0.0370079 -0.0463937 0.0157887 0.051415 0.0390564 -0.0789282 -0.0544228 0.00689122 -0.00872043 -0.0976452 -0.0316729 -0.0169179 -0.0245496 -0.00266672 -0.0326976 0.017953 0.00765052 0.0368861 -0.0601405 0.0083258 -0.00101477 0.0379716 0.0377727 -0.0435182 0.0518952 -0.0284165 0.00535002 0.0204692 0.0249669 0.00513549 -0.0152193 0.0168249 0.0215612 0.0160167
internal_weight=0 4096 4694 3679 2781 1315 962 2717 804 681 2274 1015 702 511 341 1864 774 127 917 664 841 298 166 1090 716 374 113 1713 974 561 110 634 443 462 238 739 683 864 332 252 517 514
internal_count=8790 4096 4694 3679 2781 1315 962 2717 804 681 2274 1015 702 511 341 1864 774 127 917 664 841 298 166 1090 716 374 113 1713 974 561 110 634 443 462 238 739 683 864 332 252 517 514
cat_boundaries=0 1 2 3 5 6 7 8 9 11 12 14 16 17 18 19 20 22 23 25 26 27 28 29 30 31 32 33 35 37 38 39
cat_threshold=1 134350593 16399 1720249992 68 2071 2079 738197505 16389 220497984 10 65 201326592 64 1082656768 1 20751 679608320 20160 2080 461373440 17 2049 1082671104 64 2214 2049 144 1073741826 2154 112 1409286144 300 310379520 33 1619001600 64 402 276
is_linear=0
shrinkage=0.1


Tree=11
num_leaves=43
num_cat=35
split_feature=9 3 5 0 0 0 5 5 3 1 9 1 3 6 9 5 3 1 3 1 3 1 6 9 9 5 1 5 6 3 0 0 6 0 5 6 9 1 6 9 6 3
split_gain=312.323 176.314 103.999 85.3104 82.2001 81.8126 75.0369 67.401 85.549 56.5401 56.4485 47.6376 41.7513 39.3745 36.4853 35.0157 38.8601 42.0057 34.8979 34.5355 33.2105 32.9454 31.5692 29.7313 29.3976 27.9492 27.0436 25.2582 25.2523 24.4194 24.0773 23.3522 20.6232 20.5663 19.3876 30.2012 19.2546 19.0413 18.6769 19.1649 17.7913 16.7405
threshold=2.7500000000000004 0 1 2 3 4 5 6 7 8 3.5000000000000004 9 10 11 3.5000000000000004 12 13 14 15 16 17 18 19 1.5000000000000002 1.5000000000000002 20 21 22 23 24 25 26 27 28 29 30 3.5000000000000004 31 32 1.5000000000000002 33 34
decision_type=2 9 9 9 9 9 9 9 9 9 2 9 9 9 2 9 9 9 9 9 9 9 9 2 2 9 9 9 9 9 9 9 9 9 9 9 2 9 9 2 9 9
left_child=3 6 5 9 28 12 -2 8 21 -1 34 22 19 20 30 -11 32 -18 -12 -3 -6 -5 24 -19 -9 26 -15 29 -4 -22 -14 -25 -17 -13 -7 -36 -30 -24 -10 -40 -35 -26
right_child=1 2 4 7 13 10 -8 11 38 15 18 33 14 25 -16 16 17 23 -20 -21 27 -23 37 31 41 -27 -28 -29 36 -31 -32 -33 -34 40 35 -37 -38 -39 39 -41 -42 -43
leaf_value=-0.071755073895609423 -0.12390633983027258 0.018559110761630634 0.0070251263610742205 0.010622442974107787 0.07349536035982257 0.023925560173479115 -0.019849617923489632 0.05239145710164609 -0.045686203096468876 0.049626831081431955 0.0067044203397321287 0.016700359981590283 -0.0148648352157297 -0.065670442246340985 -0.11491706299957638 -0.063519233465150385 -0.02581021227680454 0.11374191312184274 -0.06060305401785078 -0.046596923550191106 -0.0292952086997149 0.045806664923873162 0.042261693632970207 -0.01436836369405386 -0.039200028369462882 0.019124976063092141 -0.0033572321767006137 0.039587949553394799 -0.03453852173031894 0.018873764325154196 -0.078250067675787169 0.043433639205802559 -0.0083742515098802397 0.026801062919843834 -0.025958223078420467 0.031612264099348135 -0.089840635836737348 0.00088423546760617506 0.067418764863780387 -0.017739918889682238 0.074867353381692592 0.0064186423865100111
leaf_weight=108 212 114 106 726 127 305 124 90 245 119 111 131 121 103 157 131 192 39 268 252 143 430 761 111 122 228 195 341 203 322 159 168 154 138 293 120 92 141 31 148 508 201
leaf_count=108 212 114 106 726 127 305 124 90 245 119 111 131 121 103 157 131 192 39 268 252 143 430 761 111 122 228 195 341 203 322 159 168 154 138 293 120 92 141 31 148 508 201
internal_value=0 -0.0191206 -0.0127313 0.0186617 0.00409208 -0.0291285 -0.0873707 0.0257318 0.00996484 -0.00692483 -0.0110844 0.0375243 -0.0532908 0.0151348 -0.0746377 0.00150611 -0.00628212 0.0102587 -0.0423466 -0.0263536 0.027394 0.0240218 0.0253995 0.0321724 0.00216245 -0.00672694 -0.0264827 0.0192285 -0.0354102 0.00372225 -0.0543393 0.0215093 -0.0351551 0.0573964 0.00530364 -0.00884043 -0.0503594 0.0358831 -0.0279946 -0.0025239 0.0652267 -0.0118993
internal_weight=0 4096 3760 4694 1860 1900 336 3672 1580 1022 1097 2092 803 1459 437 914 795 510 379 366 933 1156 1315 318 413 526 298 806 401 465 280 279 285 777 718 413 295 902 424 179 646 323
internal_count=8790 4096 3760 4694 1860 1900 336 3672 1580 1022 1097 2092 803 1459 437 914 795 510 379 366 933 1156 1315 318 413 526 298 806 401 465 280 279 285 777 718 413 295 902 424 179 646 323
cat_boundaries=0 1 2 4 6 8 9 10 11 13 15 16 17 18 19 21 22 24 25 27 28 29 31 32 33 34 35 37 38 40 41 42 44 45 46 47
cat_threshold=8192 3 551132884 52 838893865 39 243797271 177 2049 2049 7749 136052736 3 3965716896 73 6150 34567 456 16521 343933056 16 2116 41945088 1 2064 1376780544 73 1180 332 8388608 64 2480 33858 142 234881027 39440 4 14 1342447616 2 2 29 1140850688 73 16403 1066 26
is_linear=0
shrinkage=0.1


Tree=12
num_leaves=43
num_cat=32
split_feature=8 7 3 3 2 2 1 1 5 2 1 8 5 1 8 1 5 3 5 5 2 5 2 2 3 2 8 2 7 7 8 8 8 8 2 8 1 3 2 5 8 1
split_gain=389.32 145.975 124.787 110.123 102.997 67.1664 67.4862 63.0701 50.7443 38.7908 42.6809 35.7493 45.4602 35.6014 32.3938 31.8504 27.9041 27.3151 26.3024 24.2003 23.6293 21.6216 22.6217 19.9669 19.3311 31.2965 33.3891 21.3613 18.9504 18.7389 17.7272 16.9106 16.4929 15.8764 19.5736 21.2215 15.7513 15.3838 15.3764 16.1735 15.2367 14.623
threshold=2.7500000000000004 0 1 2 3 4 5 6 7 8 9 1.5000000000000002 10 11 3.5000000000000004 12 13 14 15 16 17 18 19 20 21 22 1.5000000000000002 23 24 25 3.5000000000000004 1.5000000000000002 3.5000000000000004 2.2500000000000004 26 1.5000000000000002 27 28 29 30 1.5000000000000002 31
decision_type=2 9 9 9 9 9 9 9 9 9 9 2 9 9 2 9 9 9 9 9 9 9 9 9 9 9 2 9 9 9 2 2 2 2 9 2 9 9 9 9 2 9
left_child=1 11 8 4 -3 6 14 17 -2 -6 29 28 -13 -7 -4 -8 37 31 -15 23 -9 22 -22 -12 25 -23 -27 -28 -1 40 -10 -5 -20 34 -19 -36 -26 -17 39 -38 -11 -31
right_child=2 3 5 7 9 13 15 20 30 10 19 12 -14 18 -16 16 -18 33 32 -21 21 24 -24 -25 36 26 27 -29 -30 41 -32 -33 -34 -35 35 -37 38 -39 -40 -41 -42 -43
leaf_value=0.026769715248263923 -0.020989973910745981 -0.06344951625346136 -0.057173956223048709 0.082428843585649059 0.043895404727162329 0.026110466197435345 0.029109340630696874 0.067391216804629159 -0.094979157888184854 0.049121668751067347 0.02605782297592861 0.012379933121039742 0.054926977046228134 0.024708576900406381 -0.12338747395027726 0.024918252336166197 -0.046699062209940301 -0.055061656587216005 -0.020708395817419886 -0.042525981722962701 -0.035492573386997323 -0.03000757012937609 0.017721295046991898 -0.031626014695572878 0.0023952701119099966 0.092150189854308062 -0.022373342598302932 0.034897474623434253 0.083754080966783662 -0.0025773437463052933 -0.15056517070915154 0.0081588456434640126 -0.075901410630763055 -0.15363395781625067 0.042737670485627516 -0.019751327792875095 0.038181488303446379 -0.020594142438811455 0.057413727818719645 -0.0050165113293159846 -0.05130987734924828 0.021326650977853596
leaf_weight=121 106 324 372 34 149 282 104 132 178 17 118 596 451 111 93 100 376 107 360 408 105 124 245 101 128 64 103 145 241 552 94 244 63 7.9999999999999991 67 268 387 216 393 115 95 467
leaf_count=121 106 324 372 34 149 282 104 132 178 17 118 596 451 111 93 100 376 107 360 408 105 124 245 101 128 64 103 145 241 552 94 244 63 8 67 268 387 216 393 115 95 467
internal_value=0 0.0122991 -0.0346273 0.00408392 -0.0122812 -0.0245464 -0.0389756 0.0177576 -0.0868445 -0.00327026 -0.0075186 0.0405261 0.0313886 -0.00202406 -0.069197 -0.0206109 -0.0284256 -0.00732558 -0.0171112 -0.0282154 0.0271536 0.0238237 0.00115575 -0.000787965 0.0292117 0.0108275 0.027531 0.0116207 0.067892 0.00411825 -0.110676 0.0169302 -0.028437 -0.0223572 -0.0201031 -0.00694604 0.0368462 -0.005834 0.0416834 0.0283913 -0.0328281 0.00848964
internal_weight=0 6309 2455 4900 2231 2077 1261 2669 378 1907 1758 1409 1047 816 465 796 692 728 534 627 1941 1809 350 219 1459 436 312 248 362 1131 272 278 423 450 442 335 1023 316 895 502 112 1019
internal_count=8764 6309 2455 4900 2231 2077 1261 2669 378 1907 1758 1409 1047 816 465 796 692 728 534 627 1941 1809 350 219 1459 436 312 248 362 1131 272 278 423 450 442 335 1023 316 895 502 112 1019
cat_boundaries=0 1 2 3 4 5 7 9 10 11 13 14 16 17 18 19 20 21 22 23 24 25 26 27 28 29 30 31 33 34 35 36 38
cat_threshold=671090179 24704 25225 16387 318 1514211336 55 2327355664 19 234 2560 430017792 103 2067 172491776 68 537961728 174 5200 1264 70 2304 2 1542 480 84 4800 11 536871426 360710144 162 71303168 4 6148 32788 2064 268437504 96
is_linear=0
shrinkage=0.1


Tree=13
num_leaves=43
num_cat=25
split_feature=9 0 7 7 0 1 5 1 5 5 5 0 9 0 1 0 10 5 5 9 1 0 10 7 0 0 10 1 10 10 10 10 10 10 10 1 10 9 1 9 5 10
split_gain=211.972 86.4818 84.1949 80.3097 77.7619 80.0557 64.1159 50.566 46.1021 42.9336 41.0214 39.1665 33.5292 32.8808 30.04 29.4019 27.3684 27.2523 27.0478 24.5534 26.0128 24.3862 21.8906 21.8337 20.5641 19.697 30.4245 17.9997 24.2764 17.6822 17.0777 16.7555 15.87 15.2986 16.8065 14.648 13.6631 13.43 13.3306 14.096 13.0891 13.3292
threshold=2.7500000000000004 0 1 2 3 4 5 6 7 8 9 10 3.5000000000000004 11 12 13 2.7500000000000004 14 15 3.5000000000000004 16 17 1.5000000000000002 18 19 20 1.5000000000000002 21 1.5000000000000002 1.5000000000000002 1.5000000000000002 1.5000000000000002 2.7500000000000004 3.5000000000000004 1.5000000000000002 22 3.5000000000000004 3.5000000000000004 23 3.5000000000000004 24 2.2500000000000004
decision_type=2 9 9 9 9 9 9 9 9 9 9 9 2 9 9 9 2 9 9 2 9 9 2 9 9 9 2 9 2 2 2 2 2 2 2 9 2 2 9 2 9 2
left_child=1 17 40 10 6 11 19 15 13 14 -2 18 16 27 -7 -4 -13 24 31 20 -5 30 -22 -23 -1 26 -19 28 -9 -17 -11 -6 -14 34 -8 36 -15 -32 39 -12 41 -3
right_child=3 2 7 4 5 9 33 8 -10 21 38 12 32 35 -16 29 -18 25 -20 -21 22 23 -24 -25 -26 -27 -28 -29 -30 -31 37 -33 -34 -35 -36 -37 -38 -39 -40 -41 -42 -43
leaf_value=-0.028483072082017155 0.042360157215056364 0.035211979715822829 0.016851469728791903 -0.0050362279133176402 0.14440946970073029 -0.073599858770142065 -0.077689635052149209 0.033604915203300216 0.03199449063452247 -0.17285336601311152 -0.012415303105568735 0.068256959773014575 0.073839786010101979 0.001196557457874778 -0.026647953797892338 0.10712857783458712 -0.031490193666249777 0.06741482201974823 -0.026142593337842069 -0.084041390826561632 -0.13785537964818392 0.025287407728349129 -0.053553683288362457 -0.013288727435333998 0.022822253852574009 -0.046040951941019898 -0.023536940080232195 -0.04462878082377203 -0.022102404690848173 0.048792254536593804 -0.021456349429789363 0.023862601055634612 0.18012076215513054 -0.061109996326391219 0.034061393306420933 0.027879259013755837 0.15107420883753353 -0.10073314576779491 0.0080127608796401288 -0.078685715551920304 0.061468770234304082 -0.05700529438903567
leaf_weight=102 274 200 373 126 11.999999999999998 227 13.999999999999998 104 527 10.999999999999998 149 70 35 975 430 67 44 44 163 299 34 160 297 1065 246 287 198 195 305 242 71 102 26 25 125 276 4.9999999999999991 30 285 40 488 15.999999999999998
leaf_count=102 274 200 373 126 12 227 14 104 527 11 149 70 35 975 430 67 44 44 163 299 34 160 297 1065 246 287 198 195 305 242 71 102 26 25 125 276 5 30 285 40 488 16
internal_value=0 0.0138841 0.0204278 -0.0172744 -0.0238183 -0.0143427 -0.0485386 0.0131537 0.00620567 -0.0229568 0.0123183 0.023297 0.0590251 -0.00124789 -0.0438253 0.0369821 0.0298263 -0.0143276 -0.000681908 -0.0609033 -0.0469257 -0.0124251 -0.0608179 -0.00806804 0.00736813 -0.0284578 -0.00649841 -0.0202112 -0.00769643 0.0598527 -0.0550473 0.0348103 0.121572 0.00870759 0.0222745 0.00796877 0.00211143 -0.045851 -0.0056206 -0.0254817 0.0514406 0.0268839
internal_weight=0 4650 3773 4114 3366 2446 920 3069 2387 1994 748 452 175 1860 657 682 114 877 277 756 457 1337 331 1225 348 529 242 604 409 309 112 114 61 164 139 1256 980 101 474 189 704 216
internal_count=8764 4650 3773 4114 3366 2446 920 3069 2387 1994 748 452 175 1860 657 682 114 877 277 756 457 1337 331 1225 348 529 242 604 409 309 112 114 61 164 139 1256 980 101 474 189 704 216
cat_boundaries=0 2 3 4 6 7 8 10 11 12 13 14 16 18 20 21 22 23 25 26 28 30 31 33 35 36
cat_threshold=572002004 95 150995713 939524099 34374700 168 2960864904 2199 688180320 33 2311 1 1484 1346371971 2575306754 128 226492416 17 134267145 160 302 9 109053952 134217874 2 25231360 537920000 12 537922048 29 1350565888 1376256256 64 268435456 65 257
is_linear=0
shrinkage=0.1


Tree=14
num_leaves=43
num_cat=26
split_feature=8 3 3 9 1 4 8 1 4 1 4 3 1 3 4 10 10 4 1 3 1 8 9 1 1 3 10 1 10 3 9 1 9 1 4 4 1 9 9 9 9 9
split_gain=288.507 97.1868 87.4839 79.873 57.4768 53.3994 48.7577 36.3078 31.0568 39.6598 30.8608 31.0134 30.5123 27.4798 26.6671 30.1668 25.7019 22.7132 38.1725 28.3166 35.724 22.6549 28.5874 22.0468 21.8851 21.2625 20.9946 21.5439 20.3041 18.6876 16.3544 15.8813 29.5695 15.2631 15.0651 14.7755 18.6117 15.7628 14.3567 25.9077 14.1323 13.6585
threshold=2.7500000000000004 0 1 3.5000000000000004 2 3 1.5000000000000002 4 5 6 7 8 9 10 11 2.7500000000000004 3.5000000000000004 12 13 14 15 3.5000000000000004 3.5000000000000004 16 17 18 1.5000000000000002 19 3.5000000000000004 20 1.5000000000000002 21 1.5000000000000002 22 23 24 25 1.5000000000000002 2.7500000000000004 3.5000000000000004 1.5000000000000002 3.5000000000000004
decision_type=2 9 9 2 9 1 2 9 1 9 1 9 9 9 1 2 2 1 9 9 9 2 2 9 9 9 2 9 2 9 2 9 2 9 1 1 9 2 2 2 2 2
left_child=2 5 6 4 25 -2 23 16 12 29 13 28 -8 30 15 -5 -3 26 19 20 -19 22 -7 -1 41 -4 33 -28 -12 -10 -9 32 -21 -6 -22 36 37 -27 -15 -40 -11 -13
right_child=1 7 3 14 17 21 8 10 9 40 11 24 -14 38 -16 -17 -18 18 -20 31 34 -23 -24 -25 -26 35 27 -29 -30 -31 -32 -33 -34 -35 -36 -37 -38 -39 39 -41 -42 -43
leaf_value=0.077185937928131554 -0.026659341571406644 0.016165680744428163 0.014611202592358891 -0.12145253276882897 0.008249229465497214 -0.095000989639800942 -0.014206894884928567 -0.19143453419272324 0.019167446163969711 0.067228436548801063 0.0087906483377874923 -0.0039925749201498197 0.024546963661797146 0.079671712347853488 -0.0226654899249666 0.017276201309268227 0.1404870490163305 -0.037463134267134303 0.022180093229287504 0.060524861677100888 0.0052778625207007442 -0.12805825084254382 -0.021599739139563343 0.029255071350296886 -0.042468326722352026 0.12159879887849182 -0.020533287504590277 0.019584823827640853 0.13771153582299525 0.061415529994394813 -0.022778077318478196 -0.048085792472221806 -0.022984007393418132 0.056808499517136839 0.049243353949678097 -0.050044717040972922 -0.03831265357337834 0.0044532548671318466 -0.012764172026664198 0.078842144878033149 0.0072697579509994215 -0.037571735266039213
leaf_weight=222 275 80 116 82 111 181 446 4.9999999999999991 189 41 92 355 355 47 216 19 20 109 619 48 175 113 76 245 768 11.999999999999998 150 872 12.999999999999998 375 106 182 310 221 147 239 118 93 97 44 597 183
leaf_count=222 275 80 116 82 111 181 446 5 189 41 92 355 355 47 216 19 20 109 619 48 175 113 76 245 768 12 150 872 13 375 106 182 310 221 147 239 118 93 97 44 597 183
internal_value=0 -0.0297494 0.0106469 0.00116211 0.00549788 -0.0628076 0.0252744 -0.017494 0.0185729 0.0286283 -0.0209963 -0.0271878 0.0030696 0.00814882 -0.0468232 -0.0869386 0.0385038 0.0111542 0.00298579 -0.00936292 0.00965487 -0.0881126 -0.0734828 0.0544442 -0.0314531 -0.023072 0.0206438 0.0136713 0.0237958 0.0479023 -0.0295751 -0.0244305 -0.0113182 0.0426087 0.0263229 -0.0326546 -0.0125249 0.0173493 0.0308298 0.0162185 0.011061 -0.0151871
internal_weight=0 2455 6309 3839 3522 645 2470 1810 2003 1202 1710 1411 801 299 317 101 100 2944 1590 971 431 370 257 467 1306 578 1354 1022 105 564 111 540 358 332 322 462 223 105 188 141 638 538
internal_count=8764 2455 6309 3839 3522 645 2470 1810 2003 1202 1710 1411 801 299 317 101 100 2944 1590 971 431 370 257 467 1306 578 1354 1022 105 564 111 540 358 332 322 462 223 105 188 141 638 538
cat_boundaries=0 1 2 4 5 7 8 10 11 12 14 15 16 17 19 20 21 23 25 26 28 29 31 32 33 34 36
cat_threshold=24712 7220 6197442 59 93 173056 4 1792 373572736 96 304 4192 444596224 65 5126 37 412 1711304192 64 706 100679680 813694976 68 705954184 64 16456 10487808 4 4 100663296 64 1350565888 1026 1132 262144 35
is_linear=0
shrinkage=0.1


Tree=15
num_leaves=43
num_cat=30
split_feature=2 9 0 0 9 4 10 0 2 6 6 6 0 4 10 2 6 10 4 6 2 10 0 0 10 6 0 4 10 2 0 10 2 10 2 2 4 10 10 0 6 2
split_gain=189.206 75.7243 79.3375 63.6091 56.2398 58.2342 60.4755 46.2096 39.0098 37.3191 35.242 34.5053 25.5244 30.5274 28.1732 31.1095 24.1309 24.0162 23.3834 21.7534 40.9459 34.2474 22.1942 21.2498 21.2176 19.8646 19.5018 18.9804 18.8749 18.7192 17.4998 17.4094 17.3906 16.3076 16.1465 16.0239 16.4162 15.1852 13.6376 12.3718 12.9079 11.987
threshold=0 2.2500000000000004 1 2 3.5000000000000004 3 2.7500000000000004 4 5 6 7 8 9 10 3.5000000000000004 11 12 1.5000000000000002 13 14 15 2.7500000000000004 16 17 1.5000000000000002 18 19 20 3.5000000000000004 21 22 2.2500000000000004 23 1.5000000000000002 24 25 26 1.5000000000000002 3.5000000000000004 27 28 29
decision_type=9 2 9 9 2 1 2 9 9 9 9 9 9 1 2 9 9 2 1 9 9 2 9 9 2 9 9 1 2 9 9 2 9 2 9 9 1 2 2 9 9 9
left_child=1 2 11 18 5 6 9 16 31 39 -6 -1 13 30 15 -14 -7 -15 24 20 -4 22 -21 35 -3 -8 41 -22 32 -25 -10 -5 -20 -32 -12 -19 -37 -36 -27 40 -2 -9
right_child=4 3 19 8 10 7 25 26 12 -11 34 -13 14 17 -16 -17 -18 23 28 21 27 -23 -24 29 -26 38 -28 -29 -30 -31 33 -33 -34 -35 37 36 -38 -39 -40 -41 -42 -43
leaf_value=-0.0057547806598349325 0.06443293510075869 -0.1467383858769464 0.036432509923814214 -0.021588502296914277 -0.064341053587778474 -0.041225720309015779 0.014543870195146597 0.03570223874267852 -0.01829226127102877 0.052041799603666221 -0.019571035318327056 -0.06843826906231304 0.042893803274349038 -0.051349899860215487 0.085120843907665694 -0.021648403943405399 0.010768611285207367 -0.037377902358112648 -0.028096893339868634 0.039330208962551315 -0.028002337905153864 -0.067562316553987339 -0.0043076212506931019 0.051153601274943297 0.0048279117305582977 -0.039585932626501702 0.033050243093175335 0.01842276335634568 -0.11000034587565405 -0.0023542918686626428 -0.1591448795323282 -0.066359873420476237 -0.071799748814406983 -0.052746766684963309 -0.057075269460724047 -0.025096530750891452 0.023233219346342898 0.045488250814898913 0.09396826894234768 0.010153154333927255 0.013854707002049835 0.0017316397793582278
leaf_weight=165 106 8.9999999999999982 549 155 115 265 204 109 295 933 164 205 110 90 48 184 131 137 209 131 189 73 641 128 105 153 385 148 72 130 14.999999999999998 201 267 177 15.999999999999998 108 161 95 6.9999999999999991 457 125 797
leaf_count=165 106 9 549 155 115 265 204 109 295 933 164 205 110 90 48 184 131 137 209 131 189 73 641 128 105 153 385 148 72 130 15 201 267 177 16 108 161 95 7 457 125 797
internal_value=0 -0.0142327 -0.000141519 -0.0256647 0.0151947 0.0190674 0.0306143 0.00525699 -0.0162107 0.0390347 -0.0208295 -0.0414684 -0.0093028 -0.0159587 0.0145913 0.00329112 -0.0242013 -0.00316525 -0.0522489 0.00890121 0.0197679 -0.00260153 0.00359653 0.00339374 -0.00777462 -0.00605068 0.0144225 -0.00767666 -0.0611621 0.0252091 -0.0352535 -0.0457155 -0.0548157 -0.0588853 -0.000112199 -0.0108531 0.00360345 0.0278019 -0.0311939 0.0202901 0.0389572 0.00620197
internal_weight=0 4702 2101 2601 4062 3672 1985 1687 1939 1621 390 370 1583 1241 342 294 396 754 662 1731 886 845 772 664 114 364 1291 337 548 258 487 356 476 192 275 406 269 111 160 688 231 906
internal_count=8764 4702 2101 2601 4062 3672 1985 1687 1939 1621 390 370 1583 1241 342 294 396 754 662 1731 886 845 772 664 114 364 1291 337 548 258 487 356 476 192 275 406 269 111 160 688 231 906
cat_boundaries=0 1 3 5 6 8 9 10 11 12 14 15 16 17 18 19 20 21 23 24 26 27 28 30 31 32 33 34 36 37 38
cat_threshold=16447 714084996 6 256640037 59 380 570428436 171 16385 1272 916 9 1082130776 388 514 6 32781 322 16385 16440 16777225 1073742096 260 49419 494960769 256 658 42 1073741832 256 12 32960 34 100 494927882 33 1104 64
is_linear=0
shrinkage=0.1


Tree=16
num_leaves=43
num_cat=42
split_feature=3 7 5 0 0 0 1 1 1 5 4 0 0 3 4 1 4 5 1 3 4 1 4 5 4 5 0 1 0 0 7 1 3 4 4 4 0 5 5 0 5 1
split_gain=124.985 95.1234 79.4334 99.3312 68.9379 56.496 56.4943 47.2874 45.2452 40.4753 51.8302 43.732 40.3391 35.853 33.6271 33.0806 32.831 31.5613 26.6469 25.331 30.0082 25.1123 24.0501 22.24 21.7996 29.3358 25.1892 22.2301 21.7134 21.31 19.7301 23.0335 21.6529 19.1471 18.6071 17.5837 28.9298 17.0774 16.7843 16.6299 14.7535 13.9466
threshold=0 1 2 3 4 5 6 7 8 9 10 11 12 13 14 15 16 17 18 19 20 21 22 23 24 25 26 27 28 29 30 31 32 33 34 35 36 37 38 39 40 41
decision_type=9 9 9 9 9 9 9 9 9 9 1 9 9 9 1 9 1 9 9 9 1 9 1 9 1 9 9 9 9 9 9 9 9 1 1 1 9 9 9 9 9 9
left_child=1 29 3 7 8 21 12 -3 14 22 23 17 30 35 -2 -7 -17 -12 19 20 -13 33 -8 -11 26 -26 -10 -27 -16 -1 -6 32 -32 -4 -34 -5 -37 -21 -24 -25 -18 -14
right_child=4 2 5 13 6 15 9 -9 24 10 11 18 41 -15 28 16 40 -19 -20 37 -22 -23 38 39 25 27 -28 -29 -30 -31 31 -33 34 -35 -36 36 -38 -39 -40 -41 -42 -43
leaf_value=-0.013690386767662497 -0.034905406023591649 -0.041790000399021754 -0.031627216578526775 0.02298892364419327 0.045896747514081314 -0.075608871436676592 0.0064743652413142483 -0.12539176312286734 -0.051182258135486047 -0.019594692248476209 -0.058868967147896002 0.045835869267144391 0.024926802349565728 -0.068622754299523525 0.053787513047817981 -0.032572631203316493 0.034870442135501604 0.00078375352391055544 0.017472400519300792 -0.0050330566088185903 -0.010752824894821973 0.044806224984955359 0.075700420558764928 -0.0034331755456000618 -0.0018100129285030125 -0.098980035106361566 0.0030005169658007475 -0.031068357674417638 -0.00017966774439306913 0.034882982206592326 0.020142323834885248 0.030582082813325081 0.0090187166683524233 0.024770759432058968 -0.043633712740616483 -0.042353780741296795 0.0077932592611506223 -0.037889599692596955 0.016590317069297793 0.039436186424031905 -0.010783933389826687 0.05200049926482813
leaf_weight=119 104 156 111 102 108 104 235 196 110 100 260 134 418 141 155 471 124 141 484 310 258 196 137 119 109 119 297 132 145 337 142 178 100 108 196 266 197 342 103 443 143 519
leaf_count=119 104 156 111 102 108 104 235 196 110 100 260 134 418 141 155 471 124 141 484 310 258 196 137 119 109 119 297 132 145 337 142 178 100 108 196 266 197 342 103 443 143 519
internal_value=0 -0.019243 -0.02747 -0.0476175 0.00646286 -0.0102433 0.0118441 -0.0907555 -0.015167 0.00375544 -0.00120811 -0.00949854 0.0266506 -0.0250357 0.0117769 -0.0250356 -0.0168921 -0.0384387 -0.0016808 -0.0106508 0.00932209 0.0196392 0.0302385 0.0227072 -0.0293245 -0.0472712 -0.0126153 -0.0660989 0.0286293 0.0221829 0.00856987 0.00132771 -0.0110239 -0.00396152 -0.0261633 -0.0130435 -0.0213346 -0.022614 0.0521904 0.0304684 0.0109654 0.0403568
internal_weight=0 2771 2315 1058 5898 1257 4727 352 1171 3066 2591 1929 1661 706 404 842 738 401 1528 1044 392 415 475 662 767 360 407 251 300 456 724 616 438 219 296 565 463 652 240 562 267 937
internal_count=8669 2771 2315 1058 5898 1257 4727 352 1171 3066 2591 1929 1661 706 404 842 738 401 1528 1044 392 415 475 662 767 360 407 251 300 456 724 616 438 219 296 565 463 652 240 562 267 937
cat_boundaries=0 1 2 3 5 7 9 11 12 14 15 16 18 20 21 22 24 25 26 28 29 30 31 32 33 34 35 37 39 40 42 43 45 46 47 48 49 51 52 53 54 55 57
cat_threshold=24714 419561475 2049 578815232 164 34344373 28 1082131859 128 730885194 7 1132462080 44270832 35 152 169 692060674 128 1216352266 3 16394 1042 176160768 6 558 2051 268697600 64 7264 340 1350829056 651 4 1592 428 33816960 16 1091569664 4 33554817 1115684993 5 536871425 578830336 3 516 267 466 1488 1140850689 257 2114 144 1367343106 194 16785416 1
is_linear=0
shrinkage=0.1


Tree=17
num_leaves=43
num_cat=31
split_feature=5 7 7 1 1 6 6 1 6 5 1 6 1 4 1 10 4 10 1 4 10 1 4 10 10 6 1 10 10 4 5 1 5 10 10 4 4 1 1 10 4 10
split_gain=98.2228 65.5192 57.5232 52.514 50.1959 53.6566 42.0368 39.3854 33.8807 47.3756 33.1295 31.7837 29.4297 31.0779 29.2017 21.5471 27.0957 25.4026 22.5145 20.1636 27.6472 20.1073 18.5251 19.0382 18.3676 17.5806 30.5693 35.09 27.9348 17.4529 17.4398 16.4551 16.2626 17.4939 15.9472 15.7036 15.4791 15.3496 14.7997 13.3538 13.1322 20.3626
threshold=0 1 2 3 4 5 6 7 8 9 10 11 12 13 14 1.5000000000000002 15 3.5000000000000004 16 17 3.5000000000000004 18 19 1.5000000000000002 2.7500000000000004 20 21 1.5000000000000002 1.5000000000000002 22 23 24 25 3.5000000000000004 2.2500000000000004 26 27 28 29 3.5000000000000004 30 2.7500000000000004
decision_type=9 9 9 9 9 9 9 9 9 9 9 9 9 1 9 2 1 2 9 1 2 9 1 2 2 9 9 2 2 1 9 9 9 2 2 1 1 9 9 2 1 2
left_child=2 3 31 6 5 36 14 35 9 15 -11 37 -10 30 -2 21 17 18 24 20 -7 -5 -8 -24 -17 -6 27 -27 -28 -12 -14 -1 -15 -34 -29 -3 -4 -9 -18 -32 -39 -42
right_child=1 7 4 8 25 19 22 11 12 10 29 -13 13 32 -16 16 38 -19 -20 -21 -22 -23 23 -25 -26 26 28 34 -30 -31 39 -33 33 -35 -36 -37 -38 40 -40 -41 41 -43
leaf_value=0.042767722240849675 -0.012618561961306122 0.031657474301813225 -0.01416877137340368 0.042281059929702741 -0.027856048114374695 -0.014250562369469864 -0.031338847553802389 0.013918183698748785 0.016193236052137919 0.08247358662679477 -0.013890785103978863 0.030338231712525685 -0.02688127327656506 -0.022635763938003643 -0.075861691365384717 8.6943233446961737e-05 0.0088183794715333413 0.084615990685417183 0.020739139995463177 -0.051723539084469076 -0.10861196653306626 -0.0063356036060665411 0.12363069957888305 0.010020024988487459 -0.05165240538909515 -0.093395749563838407 0.11658045955976004 -0.021827506244941286 0.021826881650534379 0.034391376637896168 0.026136837559290884 -0.0022440160786288679 -0.057409262437382549 -0.17560815179582645 0.035678192615558844 0.080081299543592097 0.034910410058904315 -0.041546654427531519 -0.018619013478126216 -0.11355859345043665 -0.015470769997389605 0.067418109866615103
leaf_weight=155 137 232 129 233 152 352 106 296 266 116 101 573 114 311 199 445 255 43 570 870 33 133 14.999999999999998 177 80 44 38 104 156 253 193 165 147 12.999999999999998 88 133 110 123 804 5.9999999999999991 164 35
leaf_count=155 137 232 129 233 152 352 106 296 266 116 101 573 114 311 199 445 255 43 570 870 33 133 15 177 80 44 38 104 156 253 193 165 147 13 88 133 110 123 804 6 164 35
internal_value=0 0.00496131 -0.0187955 -0.000923123 -0.0248919 -0.0345951 -0.0274395 0.0226799 0.00325764 0.00861422 0.0374337 0.0135628 -0.0121433 -0.0218495 -0.0513055 0.00319044 -0.000544109 0.0101242 0.00720783 -0.042897 -0.0220592 0.0256281 0.000347337 0.0185988 -0.00774321 0.000197818 0.0105668 -0.0134709 0.0389535 0.0206124 0.00278189 0.0202627 -0.0379048 -0.0641841 0.00458337 0.0511484 0.00896782 -0.00225244 -0.0119893 0.0202982 -0.0170858 -0.000568007
internal_weight=0 6273 2396 4717 2076 1494 634 1556 4083 3033 470 1191 1050 784 336 2563 2197 1138 1095 1255 385 366 298 192 525 582 430 236 194 354 313 320 471 160 192 365 239 618 1059 199 322 199
internal_count=8669 6273 2396 4717 2076 1494 634 1556 4083 3033 470 1191 1050 784 336 2563 2197 1138 1095 1255 385 366 298 192 525 582 430 236 194 354 313 320 471 160 192 365 239 618 1059 199 322 199
cat_boundaries=0 1 2 3 5 7 8 9 11 12 13 15 16 17 18 20 21 23 24 26 27 28 30 31 32 34 35 36 37 39 41 42
cat_threshold=1 1166475264 131585 2289611524 36 4102406208 81 388 16583 26233856 32 49741 2078 109051904 1 34189 1678049408 298 2151677952 36 1173 50596992 64 1481 1442840576 64 537 140 152569088 32 673 2050 1224736768 64 30 844 581 235405312 64 587481088 1 848
is_linear=0
shrinkage=0.1


Tree=18
num_leaves=43
num_cat=42
split_feature=2 3 0 0 6 0 7 4 2 0 7 4 0 7 0 4 2 0 2 0 4 7 2 3 4 7 6 4 0 6 7 3 6 0 0 6 6 7 0 4 0 3
split_gain=136.494 100.541 77.2119 69.1947 44.3927 47.8928 43.2822 36.241 40.287 30.5798 29.7468 26.8499 25.5311 25.2699 43.4892 21.7855 21.1209 20.8075 25.0825 19.7465 19.022 18.8427 17.4908 21.7129 16.7907 15.4558 14.7118 13.2433 22.5118 13.1386 17.3321 16.5046 24.4046 21.5416 14.6707 12.7705 12.7622 12.6541 12.3735 15.5354 12.3478 10.0644
threshold=0 1 2 3 4 5 6 7 8 9 10 11 12 13 14 15 16 17 18 19 20 21 22 23 24 25 26 27 28 29 30 31 32 33 34 35 36 37 38 39 40 41
decision_type=9 9 9 9 9 9 9 1 9 9 9 1 9 9 9 1 9 9 9 9 1 9 9 9 1 9 9 1 9 9 9 9 9 9 9 9 9 9 9 1 9 9
left_child=1 2 20 -3 7 -6 15 13 10 11 -9 -4 -7 14 -2 17 -8 -5 -19 -12 -1 29 40 -24 -23 -14 -27 -28 -29 30 31 33 -33 -13 -31 -16 -15 -10 -39 -40 -11 -30
right_child=4 3 9 6 5 12 16 8 37 22 19 21 25 36 35 -17 -18 18 -20 -21 -22 24 23 -25 -26 26 27 28 41 34 -32 32 -34 -35 -36 -37 -38 38 39 -41 -42 -43
leaf_value=-0.0080368186935795439 0.039408867239814301 -0.069037754183518471 0.023137526200840634 -0.022913296431295471 -0.039969872030313831 0.052055724507276802 0.0059043577278359068 0.047236199778507487 0.058507080815573077 0.051742650243882998 -0.041041916556437096 0.018486896586289873 -0.031266741254153421 0.00043893656573423183 -0.0044344568416595483 0.030126101452148536 -0.046046670407184111 0.049923554534679108 -0.0018927485608759985 0.0096908254605015485 -0.057525445053637062 -0.029659557395053205 0.01362885645638235 -0.035227799931650983 0.017024505185892966 -0.02424106584334882 0.027565154252950416 0.031591164158649376 0.0019217448750334079 -0.062037122143461902 -0.053598563046667894 0.00015192842093858828 -0.052685392054782267 -0.034970274107877251 -0.013850885999396802 -0.04377096527921373 0.046439898261380924 0.0013025869012057703 0.0074959595318351202 0.053602085401737831 0.0025324444086111241 -0.025382366976129767
leaf_weight=106 124 104 119 183 236 107 145 113 403 102 117 219 106 105 155 756 162 137 259 186 678 119 199 151 178 131 308 221 652 241 147 158 202 101 114 198 156 115 119 271 107 159
leaf_count=106 124 104 119 183 236 107 145 113 403 102 117 219 106 105 155 756 162 137 259 186 678 119 199 151 178 131 308 221 652 241 147 158 202 101 114 198 156 115 119 271 107 159
internal_value=0 -0.0130004 -0.0242624 0.00600319 0.0121466 0.00116523 0.0111885 0.0223107 0.0322112 -0.0143176 0.00588811 -0.0213453 0.0071544 0.00433431 -0.00935243 0.0189774 -0.0221609 0.00412712 0.0169076 -0.0106585 -0.0510404 -0.0250704 0.00579676 -0.00788504 -0.00207593 0.00376465 0.00650467 0.00968519 0.00411194 -0.030775 -0.0230807 -0.0157271 -0.030186 0.00100665 -0.047454 -0.0271615 0.028708 0.044054 0.031508 0.0401317 0.0279497 -0.00370228
internal_weight=0 4687 2941 1746 3982 1920 1642 2062 1324 2157 416 1598 1684 738 477 1335 307 579 396 303 784 1479 559 350 297 1577 1471 1340 1032 1182 827 680 360 320 355 353 261 908 505 390 209 811
internal_count=8669 4687 2941 1746 3982 1920 1642 2062 1324 2157 416 1598 1684 738 477 1335 307 579 396 303 784 1479 559 350 297 1577 1471 1340 1032 1182 827 680 360 320 355 353 261 908 505 390 209 811
cat_boundaries=0 1 2 4 6 7 9 10 11 12 14 15 16 18 19 21 22 23 25 26 28 29 30 31 32 33 34 35 36 38 39 40 41 42 44 46 47 48 49 51 52 53 54
cat_threshold=16447 24715 68682912 165 671089674 16 19023 33561136 128 1073939203 898 4160 1388577045 266 671220226 1408 135291008 16 1208156160 1157628169 1 1602 36 4 257 16390 1090519044 256 352 1812004864 12 129 106 75628544 128 308 268436494 33 29 1073741824 138 12 1073741829 256 268435461 256 16962 16396 1140850691 369098757 1 4 150995010 1560
is_linear=0
shrinkage=0.1


Tree=19
num_leaves=43
num_cat=31
split_feature=9 9 1 1 0 1 3 0 1 0 3 0 1 4 1 10 0 4 0 0 3 4 9 4 4 10 1 10 4 9 4 0 10 0 3 9 10 4 4 3 10 1
split_gain=91.3441 68.1399 56.6215 50.4513 41.7138 40.5596 40.4547 50.2202 43.984 42.5168 37.6287 36.6926 32.5314 31.2498 31.1531 32.9281 30.68 30.0128 45.297 29.1625 28.1772 29.647 28.685 23.6375 22.1431 23.2719 21.835 19.9826 17.8574 14.4391 14.1858 24.9113 14.0634 13.7494 15.0521 11.8457 11.7958 10.9874 10.7852 10.7376 13.2269 10.5513
threshold=3.5000000000000004 1.5000000000000002 0 1 2 3 4 5 6 7 8 9 10 11 12 3.5000000000000004 13 14 15 16 17 18 2.7500000000000004 19 20 1.5000000000000002 21 2.7500000000000004 22 2.7500000000000004 23 24 1.5000000000000002 25 26 2.7500000000000004 1.5000000000000002 27 28 29 1.5000000000000002 30
decision_type=2 2 9 9 9 9 9 9 9 9 9 9 9 1 9 2 9 1 9 9 9 1 2 1 1 2 9 2 1 2 1 9 2 9 9 2 2 1 1 9 2 9
left_child=1 11 20 -2 10 23 7 8 30 -8 -5 -1 -9 35 37 17 38 41 26 -15 -3 29 -23 32 25 -12 36 -18 -13 -22 -4 -32 -6 -30 -35 -10 -19 -11 -14 40 -26 -16
right_child=3 2 6 4 5 -7 9 12 13 14 24 28 16 19 15 -17 27 18 -20 -21 21 22 -24 -25 39 -27 -28 -29 33 -31 31 -33 -34 34 -36 -37 -38 -39 -40 -41 -42 -43
leaf_value=-0.020344919970890787 -0.086398302214214517 -0.058880575391437241 0.0083057219963962436 0.010476621689256817 -0.15166248092119927 0.043476852168844032 -0.027120286039481162 -0.026357551445534672 0.032682957595630141 0.014347251452739485 -0.00077390376810932988 0.061860215388295163 0.072258735558382109 -0.013365642613931666 0.037642006671363915 0.14152519374846403 0.016087623873227364 0.042253807479794264 0.032011790947535722 -0.082744811320017042 0.051205215722822273 -0.067554507217113549 0.010196786573655277 0.008502259942725297 -0.1206973701129303 -0.07270385014157936 -0.028279868710889156 -0.018698606860680565 0.047845497713927439 -0.01860739866555404 0.028172479275939324 -0.020055457758966878 -0.040749924667297696 0.038570367264265486 -0.0053049911056260403 -0.030948887647487402 -0.0026366265405733669 0.058385988361593547 0.021939775088564831 -0.0062508771596627979 -0.03207493256287338 0.013134807803147387
leaf_weight=122 112 213 403 169 11.999999999999998 168 254 205 60 110 53 229 108 107 377 18 670 63 348 206 83 119 78 156 20 297 370 218 179 45 114 827 106 120 193 55 671 206 118 201 91 395
leaf_count=122 112 213 403 169 12 168 254 205 60 110 53 229 108 107 377 18 670 63 348 206 83 119 78 156 20 297 370 218 179 45 114 827 106 120 193 55 671 206 118 201 91 395
internal_value=0 0.00315803 -0.000343034 -0.0248487 -0.0185387 0.00629725 0.00251012 -0.00537843 -0.0163354 0.0111684 -0.0316573 0.0298731 0.00935514 -0.0439142 0.0150713 0.0107874 0.0161226 0.00970699 0.00113133 -0.0602997 -0.0310588 -0.0114801 -0.0351139 -0.0173056 -0.042409 -0.0601361 -0.0088249 0.00745115 0.0381424 0.0247931 -0.00726456 -0.0139519 -0.0492182 0.0259797 0.0122625 0.00206732 0.0012578 0.044065 0.0482471 -0.0211374 -0.0450701 0.0254673
internal_weight=0 7284 6441 1385 1273 442 5903 3091 1772 2812 831 843 1319 428 2558 2242 1114 2224 1452 313 538 325 197 274 662 350 1104 888 721 128 1344 941 118 492 313 115 734 316 226 312 111 772
internal_count=8669 7284 6441 1385 1273 442 5903 3091 1772 2812 831 843 1319 428 2558 2242 1114 2224 1452 313 538 325 197 274 662 350 1104 888 721 128 1344 941 118 492 313 115 734 316 226 312 111 772
cat_boundaries=0 2 4 6 7 8 10 12 13 14 16 17 18 20 21 22 24 26 27 28 29 30 32 33 34 36 38 39 40 41 42 44
cat_threshold=2151981830 20 135069696 2 301990957 389 1166018560 24715 1083476400 429 1199573120 64 671619329 7232 603980836 33 1107312640 296 538003464 3 134755912 249 327156736 424 1074790400 1 25222 1068 270 804 1124074496 64 262 276 128 128 16777473 132 3138 643 7 134 41943040 96
is_linear=0
shrinkage=0.1


Tree=20
num_leaves=43
num_cat=29
split_feature=8 6 8 3 1 6 8 1 0 0 0 1 1 0 3 6 1 3 9 0 9 3 9 6 3 0 1 8 6 0 9 9 1 6 8 6 8 6 1 1 8 9
split_gain=182.386 76.5424 80.9423 51.9027 46.6975 46.5921 51.4158 53.3208 45.6524 36.9127 31.154 28.917 28.0997 25.5109 35.9243 25.3019 25.1842 25.0129 21.1603 25.3562 36.1046 20.8514 20.1515 18.813 18.8444 18.3117 19.1739 17.954 17.8505 17.1699 15.4488 14.8699 16.7264 14.8163 16.0271 14.77 14.5182 14.4301 22.5099 13.7901 18.9485 23.2839
threshold=2.7500000000000004 0 3.5000000000000004 1 2 3 1.5000000000000002 4 5 6 7 8 9 10 11 12 13 14 2.7500000000000004 15 1.5000000000000002 16 1.5000000000000002 17 18 19 20 3.5000000000000004 21 22 2.7500000000000004 2.7500000000000004 23 24 1.5000000000000002 25 2.2500000000000004 26 27 28 1.5000000000000002 2.7500000000000004
decision_type=2 9 2 9 9 9 2 9 9 9 9 9 9 9 9 9 9 9 2 9 2 9 2 9 9 9 9 2 9 9 2 2 9 9 2 9 2 9 9 9 2 2
left_child=4 2 16 8 13 9 7 22 11 -6 15 -3 27 14 -1 -8 -2 -11 19 20 -15 36 -7 -13 -25 37 30 -10 -5 -19 -27 32 -9 34 -21 -28 -12 38 -23 40 -31 -42
right_child=1 3 -4 28 5 6 10 31 12 17 21 23 -14 18 -16 -17 -18 29 -20 33 -22 25 -24 24 -26 26 35 -29 -30 39 -32 -33 -34 -35 -36 -37 -38 -39 -40 -41 41 -43
leaf_value=-0.0040824078104850902 -0.073500593976079706 -0.08174347248656641 -0.14910396304885404 0.0039663666949313042 -0.051018518149158469 0.02726700251364263 -0.032487427232189156 0.027322351228471577 0.016220994490261043 0.042897818519885535 -0.0001269093533749669 -0.043252717344562867 -0.015358121195367468 0.12964473536819632 -0.061053939429346185 0.012899441909190424 -0.015747795678889405 0.020698231118586055 -0.023438016559371572 -0.11017090068249216 -0.047724845979855747 -0.029553790630818963 -0.058060460040710943 0.020385867101998478 -0.025314755489602526 0.033027796272553867 0.017030327463123562 0.0950534619216854 0.050417827199987525 0.093547057013879054 -0.0082164769471699661 0.092445627734481353 0.071864749785633994 0.051742674960523663 0.015699452087051199 0.068214031953543128 -0.089886480988406375 0.02515290933626781 0.013569780988175628 -0.0093043267858726308 0.052201804524889234 -0.055837222472548853
leaf_weight=277 127 117 85 300 123 49 232 228 167 136 313 448 452 11.999999999999998 182 241 211 297 189 9.9999999999999982 92 141 61 115 329 274 107 34 107 31 135 106 192 161 111 226 18 704 588 1072 42 36
leaf_count=277 127 117 85 300 123 49 232 228 167 136 313 448 452 12 182 241 211 297 189 10 92 141 61 115 329 274 107 34 107 31 135 106 192 161 111 226 18 704 588 1072 42 36
internal_value=0 -0.0227502 -0.0610218 -0.0145319 0.00914202 0.0128873 0.0193499 0.0451928 -0.0223639 -0.000599827 0.0138825 -0.0356529 -0.00157686 -0.0102621 -0.0275823 -0.00959709 -0.0402508 0.00356532 0.00382489 0.0173018 -0.0238283 0.0182819 -0.0184949 -0.0286753 -0.013269 0.0218544 0.0347286 0.0285943 0.0171946 -0.000347243 0.0189665 0.0577774 0.050177 0.0322087 0.00404968 0.0528495 -0.00514019 0.0149721 0.00491027 -0.00578351 0.0264989 0.00225303
internal_weight=0 2492 423 2069 6386 5352 3615 636 1662 1737 2979 1009 653 1034 459 473 338 1614 575 386 104 2506 110 892 444 2175 742 201 407 1478 409 526 420 282 121 333 331 1433 729 1181 109 78
internal_count=8878 2492 423 2069 6386 5352 3615 636 1662 1737 2979 1009 653 1034 459 473 338 1614 575 386 104 2506 110 892 444 2175 742 201 407 1478 409 526 420 282 121 333 331 1433 729 1181 109 78
cat_boundaries=0 1 2 4 5 6 8 9 11 13 14 16 17 18 20 21 23 24 25 26 28 29 30 32 34 35 36 37 38 39
cat_threshold=17056 24719 2284626480 29 1210 1614808064 1224999324 436 33559584 469796098 34 738459648 17 580658176 8917010 129 23107 5 813694976 64 28832 32772 20 24736 9 24708 1673529345 260 1426063552 33033 335587864 128 83888128 64 32774 16960 33284 109053952 68158784
is_linear=0
shrinkage=0.1


Tree=21
num_leaves=43
num_cat=24
split_feature=8 2 1 8 1 3 1 8 2 3 2 1 1 9 10 9 3 1 9 3 3 2 1 3 2 1 10 3 10 9 9 10 1 9 10 9 3 10 2 2 9 10
split_gain=148.883 63.3315 63.3453 47.0099 60.1103 40.5554 42.834 52.3159 39.0807 38.2902 36.4894 30.6309 30.1712 29.3191 28.8169 30.6955 27.5546 26.8836 26.344 22.8135 22.4045 22.9371 22.3527 24.1816 29.4094 20.2945 19.9998 19.2564 18.7631 28.506 27.5751 18.2689 18.1201 17.4923 15.1179 14.2586 13.5383 15.1285 13.074 12.8989 11.8483 11.848
threshold=2.7500000000000004 0 1 1.5000000000000002 2 3 4 3.5000000000000004 5 6 7 8 9 2.7500000000000004 1.5000000000000002 1.5000000000000002 10 11 3.5000000000000004 12 13 14 15 16 17 18 3.5000000000000004 19 2.7500000000000004 3.5000000000000004 3.5000000000000004 1.5000000000000002 20 3.5000000000000004 2.2500000000000004 3.5000000000000004 21 1.5000000000000002 22 23 1.5000000000000002 3.5000000000000004
decision_type=2 9 9 2 9 9 9 2 9 9 9 9 9 2 2 2 9 9 2 9 9 9 9 9 9 9 2 9 2 2 2 2 9 2 2 2 9 2 9 9 2 2
left_child=1 2 27 4 -3 12 7 10 14 40 -7 20 36 -14 15 -8 -6 26 -15 31 21 -5 -22 -24 -25 -18 -10 -1 29 39 -30 35 34 -12 -23 -13 -2 -38 -21 -27 -4 -42
right_child=5 3 9 11 16 6 8 -9 17 -11 33 19 13 18 -16 -17 25 -19 -20 38 22 32 23 24 -26 28 -28 -29 30 -31 -32 -33 -34 -35 -36 -37 37 -39 -40 -41 41 -43
leaf_value=-0.015523015597245081 -0.097078884888034317 -0.038499577769884247 -0.14051835576056848 0.048592318541275423 0.064072921521637655 0.019495474734451873 -0.30101336608417228 -0.12154051699508589 0.0074594760269369609 -0.0031731154793207938 -0.076130940923245502 0.095763998814099013 0.060115228466018036 -0.059720327534190182 -0.013186531094837119 -0.059915530720376677 -0.012039185801776842 0.042763113384650601 -0.0013216747123577289 -0.0075901007330822839 0.0025891818020081806 -0.053430402533038969 0.0028997328878608707 -0.080491189966383381 -0.015692364514578058 0.013995716388711457 -0.065160018613039883 0.030604048511594362 0.045006287338226314 -0.072345011052339689 0.23590609644121974 0.02869206311449056 0.0095014068242366204 0.007999009035359262 0.033777039196859475 -0.040603463512413618 -0.15922995936965614 -0.038401186850652261 0.021400183369194008 0.049433747564271158 -0.061048963211005516 -0.16935200432327824
leaf_weight=152 108 106 25 132 300 108 4.9999999999999991 71 269 131 117 68 39 155 928 47 114 215 153 302 1020 85 228 109 211 210 43 198 26 25 9.9999999999999982 522 1605 31 25 7.9999999999999991 9.9999999999999982 193 303 264 197 9.9999999999999982
leaf_count=152 108 106 25 132 300 108 5 71 269 131 117 68 39 155 928 47 114 215 153 302 1020 85 228 109 211 210 43 198 26 25 10 522 1605 31 25 8 10 193 303 264 197 10
internal_value=0 0.00825724 -0.0196542 0.0117823 0.0308377 -0.0205572 -0.0126533 -0.0448922 -0.00538022 -0.0483796 -0.0249431 0.0074481 -0.0417036 -0.0198687 -0.0171296 -0.08896 0.0386175 0.0163712 -0.0308206 0.0210885 0.00256841 0.0100052 -0.00620036 -0.0222866 -0.0397265 0.0259695 -0.0026614 0.0107106 0.0341488 0.0296034 0.103556 0.0349001 0.00674126 -0.0548999 -0.0307064 0.0810281 -0.064539 -0.0430842 0.0070532 0.0351384 -0.0725929 -0.0671648
internal_weight=0 6386 713 5673 1055 2492 1834 327 1507 363 256 4618 658 347 980 52 949 527 308 1203 3415 1847 1568 548 320 649 312 350 535 499 36 598 1715 148 110 76 311 203 605 474 232 207
internal_count=8878 6386 713 5673 1055 2492 1834 327 1507 363 256 4618 658 347 980 52 949 527 308 1203 3415 1847 1568 548 320 649 312 350 535 499 36 598 1715 148 110 76 311 203 605 474 232 207
cat_boundaries=0 1 3 4 5 7 8 9 10 12 14 15 17 18 19 20 22 23 24 25 26 28 29 30 31
cat_threshold=20483 595607552 100 677381248 24712 806437248 48 16765 10245 150 397992464 125 746586112 68 18456 92276736 64 23578 31777 512 353894400 72 580 552 1342177280 16523 2621440 20 8192 1904 92
is_linear=0
shrinkage=0.1


Tree=22
num_leaves=43
num_cat=27
split_feature=8 6 8 2 2 6 2 2 3 3 2 3 3 8 4 8 2 2 4 6 3 4 2 9 4 9 8 4 9 9 4 3 4 8 9 9 2 9 9 4 4 9
split_gain=121.18 61.6928 61.9093 53.9624 52.618 52.883 48.9271 34.0482 26.4476 26.0492 24.49 35.6271 25.2298 18.2406 19.6329 17.3746 17.3541 15.8678 26.1341 20.9574 21.7753 14.5714 18.1022 16.1162 13.7423 13.4491 15.0722 13.2976 19.2651 17.8266 11.8684 14.112 22.2366 20.2432 20.4462 19.259 11.6984 11.6909 10.4582 9.94358 9.70299 15.635
threshold=2.7500000000000004 0 3.5000000000000004 1 2 3 4 5 6 7 8 9 10 1.5000000000000002 11 1.5000000000000002 12 13 14 15 16 17 18 2.7500000000000004 19 1.5000000000000002 1.5000000000000002 20 1.5000000000000002 2.7500000000000004 21 22 23 1.5000000000000002 1.5000000000000002 2.7500000000000004 24 1.5000000000000002 1.5000000000000002 25 26 3.5000000000000004
decision_type=2 9 2 9 9 9 9 9 9 9 9 9 9 2 1 2 9 9 1 9 9 1 9 2 1 2 2 1 2 2 1 9 1 2 2 2 9 2 2 1 1 2
left_child=4 2 3 -2 30 10 -3 8 16 -8 11 -6 -12 -10 -15 40 25 19 -19 20 -11 23 -23 36 -24 -7 -27 29 -29 38 -1 -32 33 35 -35 37 -9 -33 -13 -21 41 -14
right_child=1 6 -4 -5 5 7 9 21 13 17 12 27 15 14 -16 -17 -18 18 -20 39 -22 22 24 -25 -26 26 -28 28 -30 -31 31 32 -34 34 -36 -37 -38 -39 -40 -41 -42 -43
leaf_value=-0.049599710347510546 -0.083429658015644503 0.026621513939474956 -0.12990620262623354 -0.0018519148931390381 0.045229205882544816 0.055645570138993045 0.0087782106160812397 0.052866576246944734 0.047652101403439735 -0.029853727631054983 -0.037165595643044967 -0.058934529311012854 0.049982366087961326 0.04492426161230334 0.0013431917901792912 0.0079288069726458233 -0.041429741329474093 0.010850655760673941 -0.028352376509508032 -0.017103090069809493 0.020355075787314256 0.041896674232682646 0.019846361371402894 0.07665917683339056 -0.017775279401165515 -0.097527625771051146 0.00063246066054955846 0.027836036352276002 -0.013311214449991789 -0.069479915206829418 0.010918303819300115 -0.10599628728745143 7.0838084023508395e-05 0.13009513989971305 -0.04528216428110797 -0.042647339778507959 0.012078346993846745 -0.28879134812090168 -0.0052675428337709378 -0.059593964905604146 0.014655885381114821 0.18214801217895596
leaf_weight=109 125 285 85 213 102 39 312 163 167 290 101 45 100 120 505 1511 133 297 377 104 114 352 531 134 111 15.999999999999998 181 132 784 90 158 10.000000000000002 175 5.9999999999999991 110 17 155 6.9999999999999991 172 290 141 8.9999999999999982
leaf_count=109 125 285 85 213 102 39 312 163 167 290 101 45 100 120 505 1511 133 297 377 104 114 352 531 134 111 16 181 132 784 90 158 10 175 6 110 17 155 7 172 290 141 9
internal_value=0 -0.0185539 -0.0528866 -0.034712 0.007442 0.0103415 -0.0112002 0.0208829 0.00793617 -0.0173699 0.0016758 -0.00867443 0.00904879 0.0181729 0.0105152 0.011916 -0.0139243 -0.0229364 -0.0111817 -0.0325744 -0.0155201 0.031138 0.0236807 0.0465751 0.0131498 0.00274351 -0.00784656 -0.0135371 -0.0072756 -0.0313123 -0.0207263 -0.0132407 -0.0249583 -0.0521484 -0.0350528 -0.122343 0.0351329 -0.194471 -0.0166423 -0.0491555 0.0363459 0.0574234
internal_weight=0 2492 423 338 6386 5794 2069 2607 1161 1784 3187 1325 1862 792 625 1761 369 1472 674 798 404 1446 994 452 642 236 197 1223 916 307 592 483 325 150 116 34 318 17 217 394 250 109
internal_count=8878 2492 423 338 6386 5794 2069 2607 1161 1784 3187 1325 1862 792 625 1761 369 1472 674 798 404 1446 994 452 642 236 197 1223 916 307 592 483 325 150 116 34 318 17 217 394 250 109
cat_boundaries=0 1 2 3 4 5 6 7 8 9 10 11 12 13 14 15 16 17 18 19 20 21 22 23 24 25 26 27
cat_threshold=17056 169 3 34236 7808 16460 8321 7232 5240 20496 24640 225 72 33038 91 262 11 75 7680 564 168 1080 4292 7 176 44 536
is_linear=0
shrinkage=0.1


Tree=23
num_leaves=43
num_cat=21
split_feature=8 7 5 7 5 4 5 4 9 9 8 10 5 9 10 8 9 5 4 4 9 10 8 10 9 4 4 5 9 4 5 10 5 10 4 4 10 10 10 4 8 5
split_gain=98.9025 34.3306 37.3168 27.7182 24.7258 35.7352 23.3391 22.892 23.144 16.1648 15.7561 18.7432 16.7073 15.3124 19.4145 12.698 13.0797 12.4376 14.8805 14.7086 14.2112 12.369 17.2151 11.6203 10.1508 27.9243 12.2359 9.49439 9.40323 14.1453 12.7612 19.6158 10.4184 13.347 10.1151 8.83624 8.62503 8.96406 8.51759 8.26998 11.3821 12.2045
threshold=2.7500000000000004 0 1 2 3 4 5 6 1.5000000000000002 1.5000000000000002 3.5000000000000004 3.5000000000000004 7 3.5000000000000004 2.7500000000000004 1.5000000000000002 1.5000000000000002 8 9 10 3.5000000000000004 2.7500000000000004 3.5000000000000004 3.5000000000000004 3.5000000000000004 11 12 13 2.7500000000000004 14 15 1.5000000000000002 16 1.5000000000000002 17 18 1.5000000000000002 2.7500000000000004 1.5000000000000002 19 1.5000000000000002 20
decision_type=2 9 9 9 9 1 9 1 2 2 2 2 9 2 2 2 2 9 1 1 2 2 2 2 2 1 1 9 2 1 9 2 9 2 1 1 2 2 2 1 2 9
left_child=1 6 3 13 7 23 -1 8 -2 -4 12 -12 35 14 15 -3 38 19 -19 20 -11 22 -7 -6 26 -26 -5 -18 34 32 31 -31 33 -30 -28 -9 -14 -38 -17 -8 -41 -42
right_child=4 2 9 24 5 21 39 10 -10 17 11 -13 36 -15 -16 16 27 18 -20 -21 -22 -23 -24 -25 25 -27 28 -29 29 30 -32 -33 -34 -35 -36 -37 37 -39 -40 40 41 -43
leaf_value=-0.0099824167375019424 -0.14897756053734321 0.013706853145471948 0.051510712688989047 0.014180313248173993 0.024250610772387438 0.012001971824564818 0.011968873886800159 -0.029951742590411213 -0.0033123654158509113 -0.018348856019742409 -0.079970003375971863 -0.027843588652193687 -0.093615484971363752 -0.099094555985882682 0.037680749150235206 -0.066345256360211935 -0.0071859394179053073 0.045494486919530119 0.0089709781107182029 0.012999760999738142 -0.142842066152473 -0.031387725383311818 -0.085554369374014408 0.090605153424464041 -0.051950852144712123 0.0091727140519841377 -0.010669612982621257 -0.0506303475529341 0.082559046991467794 -0.15802452024776903 -0.0073192520295761124 -0.040306877846076748 -0.021764841191237744 0.0056678635683520742 0.006600828008502823 0.0018382149659979152 -0.0174113017549321 -0.043691064999871659 -0.2220230650513817 0.051413738926236845 0.001588995241697262 0.033451269094675821
leaf_weight=211 9.9999999999999982 51 137 708 186 178 348 116 573 104 126 155 24 27 46 12.000000000000002 101 209 263 332 8.9999999999999982 247 19 30 117 177 425 129 24 15.999999999999998 138 91 119 225 1525 283 219 326 4.9999999999999991 221 177 439
leaf_count=211 10 51 137 708 186 178 348 116 573 104 126 155 24 27 46 12 101 209 263 332 9 247 19 30 117 177 425 129 24 16 138 91 119 225 1525 283 219 326 5 221 177 439
internal_value=0 0.00671223 0.00280232 -0.00168714 -0.0167728 -3.0822e-06 0.0205079 -0.0226869 -0.00598943 0.0194101 -0.0303591 -0.0514418 -0.0244999 -0.027285 -0.0221359 -0.0314759 -0.0408249 0.0147686 0.0258184 0.00238088 -0.0271874 -0.0161706 0.00216222 0.0323946 0.00105333 -0.0167064 0.00265798 -0.0341815 -0.000582769 -0.0113765 -0.0293223 -0.0543393 0.00138086 0.0129 0.00281194 -0.00796554 -0.035297 -0.0331883 -0.123033 0.0259793 0.0315711 0.0248834
internal_weight=0 6386 4990 3936 2492 660 1396 1832 583 1054 1249 281 968 371 344 298 247 917 472 445 113 444 197 216 3565 294 3271 230 2563 613 245 107 368 249 1950 399 569 545 17 1185 837 616
internal_count=8878 6386 4990 3936 2492 660 1396 1832 583 1054 1249 281 968 371 344 298 247 917 472 445 113 444 197 216 3565 294 3271 230 2563 613 245 107 368 249 1950 399 569 545 17 1185 837 616
cat_boundaries=0 1 2 3 4 5 6 7 8 9 10 11 12 13 14 15 16 17 18 19 20 21
cat_threshold=537265155 2087 92274688 2403 69 2120 362 2050 24 312 274 45 265 2082 516 33 2081 512 20 41 2
is_linear=0
shrinkage=0.1


Tree=24
num_leaves=43
num_cat=23
split_feature=8 1 2 1 1 2 1 9 6 6 8 2 1 6 9 2 10 10 10 10 10 1 6 9 2 9 8 2 10 8 9 1 9 6 10 8 6 1 6 2 6 10
split_gain=64.3447 37.7074 37.4566 49.1213 35.0263 25.935 33.538 29.2104 23.9678 23.2039 22.6993 22.0598 22.0256 26.0933 19.2172 19.05 33.0306 28.7145 18.5291 21.915 18.3416 18.0056 17.2508 25.3017 16.844 16.7436 16.5604 15.3078 19.513 14.4093 13.6568 13.4355 14.828 14.8441 13.0764 15.6265 12.7853 12.0348 17.2812 11.966 11.8434 14.0489
threshold=2.7500000000000004 0 1 2 3 4 5 3.5000000000000004 6 7 3.5000000000000004 8 9 10 3.5000000000000004 11 1.5000000000000002 2.7500000000000004 3.5000000000000004 2.7500000000000004 1.5000000000000002 12 13 3.5000000000000004 14 1.5000000000000002 1.5000000000000002 15 2.2500000000000004 1.5000000000000002 1.5000000000000002 16 2.7500000000000004 17 1.5000000000000002 1.5000000000000002 18 19 20 21 22 2.2500000000000004
decision_type=2 9 9 9 9 9 9 2 9 9 2 9 9 9 2 9 2 2 2 2 2 9 9 2 9 2 2 9 2 2 2 9 2 9 2 2 9 9 9 9 9 2
left_child=1 18 4 10 14 6 7 27 -5 21 20 -10 36 -14 -2 16 -9 29 19 24 -4 -8 23 -22 -1 -15 -18 28 37 -17 -23 32 33 -29 -27 -36 -7 38 -3 -37 41 -33
right_child=2 5 3 8 -6 12 9 15 11 -11 -12 -13 13 25 -16 17 26 -19 -20 -21 22 30 -24 -25 -26 34 -28 31 -30 -31 -32 40 -34 -35 35 39 -38 -39 -40 -41 -42 -43
leaf_value=-0.053368842310396195 -0.019851017516188434 0.030289865870826761 -0.084588959839056635 0.037681964811030096 -0.037445494443055991 0.050944773677203584 0.03529450064101488 0.022538566110919575 0.019300431746287143 0.033182006140082508 -0.074107840261009972 -0.021617896573357751 0.057012796853931992 0.033974706623440168 0.02543560413007297 -0.13028600870167506 -0.20340586497455587 0.081737000774933732 -0.17295916754383497 0.070287720738653012 -0.021393022655194455 0.041651144181994455 0.0039804956338889679 -0.14695569219537055 -0.007011497765785097 -0.019274725669155224 -0.079769221108499586 -0.033073960979717092 0.058673178379159169 -0.015037774946954036 -0.014888204903298303 0.055611088912506192 -0.02548996642479457 0.0026977355587810559 0.050299889000242015 -0.0051699591270739486 0.018934142333458141 -0.015953013286464215 -0.010877999007246012 0.017762000806060999 0.0024320742399429936 -0.043081934189334946
leaf_weight=128 209 293 34 295 727 286 122 28 303 587 77 216 110 216 168 11.999999999999998 12.999999999999998 28 6.9999999999999991 24 82 48 288 19 207 203 64 121 88 65 328 99 346 943 81 523 294 145 150 388 363 15.999999999999998
leaf_count=128 209 293 34 295 727 286 122 28 303 587 77 216 110 216 168 12 13 28 7 24 82 48 288 19 207 203 64 121 88 65 328 99 346 943 81 523 294 145 150 388 363 16
internal_value=0 0.00796223 -0.0112129 0.00028934 -0.0246688 0.00987603 0.00497423 -0.000876201 0.0153772 0.0197891 -0.0240738 0.00217459 0.0188058 0.0122746 0.000336436 -0.0366334 -0.0638176 -0.00278606 -0.0227857 -0.019961 -0.0153618 0.00362262 -0.00908545 -0.0422319 -0.0266394 0.00836828 -0.103262 0.00206374 0.0148409 -0.0346101 -0.00737258 -0.00258213 -0.00748979 -0.001686 0.00378231 0.00851706 0.0353802 0.00843377 0.0164254 0.00474477 0.0117356 0.0382984
internal_weight=0 6326 2418 1314 1104 5960 3859 2774 814 1085 500 519 2101 1521 377 210 105 105 366 359 423 498 389 101 335 1411 77 2564 676 77 376 1888 1410 1064 1195 992 580 588 443 911 478 115
internal_count=8744 6326 2418 1314 1104 5960 3859 2774 814 1085 500 519 2101 1521 377 210 105 105 366 359 423 498 389 101 335 1411 77 2564 676 77 376 1888 1410 1064 1195 992 580 588 443 911 478 115
cat_boundaries=0 2 3 5 7 8 10 11 12 13 15 16 17 18 19 20 21 23 24 25 27 28 29 30
cat_threshold=2150142466 24 16939 431030472 1 491783304 17 49215 1979916352 103 1396 43 34896 369239040 36 2050 7 135285760 49312 179 16402 335675392 101 50 17161 1342177280 69 19 5440 33
is_linear=0
shrinkage=0.1


Tree=25
num_leaves=43
num_cat=42
split_feature=2 1 3 1 4 1 4 5 1 3 1 7 2 1 4 5 7 5 4 2 3 4 1 4 2 2 3 5 5 1 4 3 1 2 7 4 5 4 4 7 2 2
split_gain=51.984 60.5733 39.4639 34.5258 32.3735 35.5909 26.2857 27.4635 25.6974 23.6703 24.76 26.0047 26.7618 23.5689 23.5584 37.8571 20.517 20.2723 21.3547 19.5766 18.4181 31.4989 21.8226 22.1085 18.4872 16.9176 16.7497 19.8309 19.2189 25.1516 17.4343 16.6007 16.5933 20.9374 16.1256 15.993 15.51 18.4806 14.7885 14.3141 13.2968 12.5369
threshold=0 1 2 3 4 5 6 7 8 9 10 11 12 13 14 15 16 17 18 19 20 21 22 23 24 25 26 27 28 29 30 31 32 33 34 35 36 37 38 39 40 41
decision_type=9 9 9 9 1 9 1 9 9 9 9 9 9 9 1 9 9 9 1 9 9 1 9 1 9 9 9 9 9 9 1 9 9 9 9 1 9 1 1 9 9 9
left_child=1 31 3 14 5 -5 25 34 26 10 -10 19 -13 -9 -3 -16 -6 18 -11 -12 21 -18 40 32 -25 -4 28 -28 38 30 -30 -1 -24 -34 35 -8 -14 -38 -2 -7 -22 -19
right_child=8 2 6 4 16 39 7 13 9 17 11 12 36 -15 15 -17 20 41 -20 -21 22 -23 23 24 -26 -27 27 -29 29 -31 -32 -33 33 -35 -36 -37 37 -39 -40 -41 -42 -43
leaf_value=0.014424828405548377 -0.007994981839817018 -0.0056155948540213005 0.00032030276280644118 0.059688581672945898 0.021331598894522127 -0.02016878605363057 -0.010895151745793171 0.0066122283983256654 0.052064525011910147 -0.049330936024116243 0.051330843542647886 -0.0096357475944754203 -0.0021183026350251265 -0.040369219084437191 -0.013494675239967713 -0.09795542280318037 -0.08459385248368366 0.0044597955002834561 0.0046045298636096434 0.012649253585000181 -0.016088574920613403 -0.0057072572993088185 -0.026179844641797456 -0.0052563420365927928 -0.063121899710285853 0.04877902589274815 -0.0062291339854325598 0.030177838687537956 -0.01142348121789772 -0.027175647723618371 0.02951113742659486 0.069235111283354842 0.027638233601028989 -0.014745056498554877 -0.01618624424387188 0.032416498552919872 0.065172539596137363 0.016271099260489499 -0.062384577226498851 0.020978283482795328 -0.071075441087928334 0.026092801592359056
leaf_weight=140 111 111 128 102 105 217 115 173 228 119 305 489 180 272 104 139 115 1054 171 264 106 100 167 115 116 175 316 271 171 240 243 108 263 195 158 303 122 244 104 124 106 355
leaf_count=140 111 111 128 102 105 217 115 173 228 119 305 489 180 272 104 139 115 1054 171 264 106 100 167 115 116 175 316 271 171 240 243 108 263 195 158 303 122 244 104 124 106 355
internal_value=0 -0.0064746 -0.00989293 -0.018126 -0.012411 0.0109788 0.00373194 -0.00401189 0.00908243 0.0136874 0.0215719 0.0169089 0.00726783 -0.0223886 -0.0464078 -0.0639801 -0.0199041 0.00510077 -0.0185321 0.0339702 -0.0234331 -0.0499876 -0.0176273 -0.0101638 -0.035879 0.0290441 -0.00210441 0.0108274 -0.0108662 -0.00211304 0.0127468 0.0402408 -0.000198426 0.00967118 0.0103406 0.0205271 0.0222969 0.0340128 -0.0360786 -0.00501622 -0.0457542 0.0100719
internal_weight=0 3757 3509 2185 1831 443 1324 1021 4987 3531 1832 1604 1035 445 354 243 1388 1699 290 569 1283 215 1068 856 231 303 1456 587 869 654 414 248 625 458 576 418 546 366 215 341 212 1409
internal_count=8744 3757 3509 2185 1831 443 1324 1021 4987 3531 1832 1604 1035 445 354 243 1388 1699 290 569 1283 215 1068 856 231 303 1456 587 869 654 414 248 625 458 576 418 546 366 215 341 212 1409
cat_boundaries=0 1 2 3 5 6 8 9 10 12 13 15 16 17 19 20 21 22 23 24 25 26 27 29 30 31 32 33 34 35 37 38 39 40 41 42 43 44 45 46 47 48 49
cat_threshold=16431 38798432 24715 545882624 2 1444 218103808 4 10 1177 3279487810 8 22595 671228936 4 604177153 4544 402653184 64 608 22 131073 385 776 2496 8192 512 67110912 37 521 35 10 3777 99 1417 1090519104 8 1121 8259 1090781184 11 1073741827 1121 1029 21 804 1073807360 12 33296
is_linear=0
shrinkage=0.1


Tree=26
num_leaves=43
num_cat=42
split_feature=2 0 3 6 0 6 4 0 2 4 4 7 4 6 3 0 6 7 6 2 6 4 4 3 2 0 0 2 4 0 4 2 4 4 3 0 0 0 4 4 4 3
split_gain=42.6013 54.3857 40.2857 34.4078 33.6187 28.6515 24.6326 29.6217 24.4814 20.7395 18.6409 18.3656 16.2353 18.5485 16.2022 30.5259 15.7138 19.2709 15.7023 15.4435 14.6453 14.7254 14.2004 21.1654 18.89 17.721 13.7708 17.4521 12.4929 12.3841 11.9353 11.8187 11.698 11.6977 11.2129 10.8595 10.1201 10.0345 10.6312 9.78471 9.56711 9.46448
threshold=0 1 2 3 4 5 6 7 8 9 10 11 12 13 14 15 16 17 18 19 20 21 22 23 24 25 26 27 28 29 30 31 32 33 34 35 36 37 38 39 40 41
decision_type=9 9 9 9 9 9 1 9 9 1 1 9 1 9 9 9 9 9 9 9 9 1 1 9 9 9 9 9 1 9 1 9 1 1 9 9 9 9 1 1 1 9
left_child=2 8 6 -4 5 29 31 -8 32 -10 -7 41 13 -13 19 -16 -9 -18 -17 -14 30 -22 23 -6 -25 33 27 40 34 -5 -21 -1 -2 -24 -27 -19 -12 38 -11 -28 -20 -3
right_child=1 11 3 4 22 10 7 16 9 37 36 12 14 -15 15 18 17 35 26 20 21 -23 25 24 -26 28 39 -29 -30 -31 -32 -33 -34 -35 -36 -37 -38 -39 -40 -41 -42 -43
leaf_value=0.0074125557953143469 -0.011233054653810821 0.009794227837862636 -0.049251272482304681 0.013629559086897867 0.017984042932777739 -0.034898824948399541 -0.045920292792602874 -0.027896752051927293 -0.0026580672651877182 0.0021267689434193954 0.03177012273153576 -0.0018878423330708077 -0.027369408840202253 0.044229523063187198 0.049093068460604586 0.023033374334458543 -0.024660960025345863 0.010306014184159719 -0.013368336469527476 -0.037248395552688121 -0.0060120391068429566 0.035656695275662113 -0.016377521464136666 0.0052079901912606358 -0.048678339876418626 -0.02629004144188786 0.033577701045539782 -0.04435924997606059 -0.027124033982439812 0.059729948007548876 0.0089652139964228796 0.04130515742179218 0.017644478624024452 -0.059635361959741888 0.011204411422635709 0.04253227720063292 -0.01056336828770231 -0.048931516023192033 -0.039053445499999923 0.0050694406050624183 0.018219045026841726 0.048859287104881521
leaf_weight=199 202 110 235 156 236 145 119 110 483 138 101 129 182 299 216 582 115 434 207 105 146 193 130 126 127 106 152 103 381 109 105 248 414 195 239 138 108 211 108 509 160 233
leaf_count=199 202 110 235 156 236 145 119 110 483 138 101 129 182 299 216 582 115 434 207 105 146 193 130 126 127 106 152 103 381 109 105 248 414 195 239 138 108 211 108 509 160 233
